{"learner":{"attributes":{"best_iteration":"107","best_score":"0.31500699625895273","scikit_learn":"{\"_estimator_type\": \"classifier\"}"},"feature_names":["age","sex","trestbps","chol","fbs","thalach","exang","oldpeak","ca","cp_0","cp_1","cp_2","cp_3","restecg_0","restecg_1","restecg_2","slope_0","slope_1","slope_2","thal_1","thal_2","thal_3"],"feature_types":["float","int","float","float","int","float","int","float","float","i","i","i","i","i","i","i","i","i","i","i","i","i"],"gradient_booster":{"model":{"cats":{"enc":[],"feature_segments":[],"sorted_idx":[]},"gbtree_model_param":{"num_parallel_tree":"1","num_trees":"158"},"iteration_indptr":[0,1,2,3,4,5,6,7,8,9,10,11,12,13,14,15,16,17,18,19,20,21,22,23,24,25,26,27,28,29,30,31,32,33,34,35,36,37,38,39,40,41,42,43,44,45,46,47,48,49,50,51,52,53,54,55,56,57,58,59,60,61,62,63,64,65,66,67,68,69,70,71,72,73,74,75,76,77,78,79,80,81,82,83,84,85,86,87,88,89,90,91,92,93,94,95,96,97,98,99,100,101,102,103,104,105,106,107,108,109,110,111,112,113,114,115,116,117,118,119,120,121,122,123,124,125,126,127,128,129,130,131,132,133,134,135,136,137,138,139,140,141,142,143,144,145,146,147,148,149,150,151,152,153,154,155,156,157,158],"tree_info":[0,0,0,0,0,0,0,0,0,0,0,0,0,0,0,0,0,0,0,0,0,0,0,0,0,0,0,0,0,0,0,0,0,0,0,0,0,0,0,0,0,0,0,0,0,0,0,0,0,0,0,0,0,0,0,0,0,0,0,0,0,0,0,0,0,0,0,0,0,0,0,0,0,0,0,0,0,0,0,0,0,0,0,0,0,0,0,0,0,0,0,0,0,0,0,0,0,0,0,0,0,0,0,0,0,0,0,0,0,0,0,0,0,0,0,0,0,0,0,0,0,0,0,0,0,0,0,0,0,0,0,0,0,0,0,0,0,0,0,0,0,0,0,0,0,0,0,0,0,0,0,0,0,0,0,0,0,0],"trees":[{"base_weights":[-2.798403E-8,1.2153376E0,-1.0008665E0,7.905286E-2,1.4846183E0,-1.3654811E0,-8.506312E-3,-9.1519386E-2,7.428357E-2,1.6666596E-1,-6.7199156E-2,-1.5847811E-1,-5.6804925E-2,-7.35116E-2,8.814617E-2],"categories":[],"categories_nodes":[],"categories_segments":[],"categories_sizes":[],"default_left":[0,0,0,0,0,0,0,0,0,0,0,0,0,0,0],"id":0,"left_children":[1,3,5,7,9,11,13,-1,-1,-1,-1,-1,-1,-1,-1],"loss_changes":[6.598774E1,7.378971E0,1.0752562E1,4.47456E0,8.873512E0,2.9032555E0,6.4677925E0,0E0,0E0,0E0,0E0,0E0,0E0,0E0,0E0],"parents":[2147483647,0,0,1,1,2,2,3,3,4,4,5,5,6,6],"right_children":[2,4,6,8,10,12,14,-1,-1,-1,-1,-1,-1,-1,-1],"split_conditions":[1E0,-4.3298385E-1,-3.5903928E-1,-5.27875E-1,1E0,4.4776866E-1,1E0,-9.1519386E-2,7.428357E-2,1.6666596E-1,-6.7199156E-2,-1.5847811E-1,-5.6804925E-2,-7.35116E-2,8.814617E-2],"split_indices":[19,7,8,3,9,0,12,0,0,0,0,0,0,0,0],"split_type":[0,0,0,0,0,0,0,0,0,0,0,0,0,0,0],"sum_hessian":[5.2248802E1,2.3499462E1,2.8749342E1,4.7498913E0,1.874957E1,2.0749525E1,7.999817E0,1.74996E0,2.9999313E0,1.74996E1,1.2499714E0,1.5499645E1,5.24988E0,4.499897E0,3.49992E0],"tree_param":{"num_deleted":"0","num_feature":"22","num_nodes":"15","size_leaf_vector":"1"}},{"base_weights":[-2.1611662E-3,-8.548034E-1,1.1808947E0,-1.2735606E0,1.7157525E-1,8.522753E-2,1.5257931E0,-1.4665025E-1,-5.7530142E-2,-5.4897454E-2,1.0852839E-1,1.008684E-1,-6.410355E-2,4.6798043E-2,1.7165788E-1],"categories":[],"categories_nodes":[],"categories_segments":[],"categories_sizes":[],"default_left":[0,0,0,0,0,0,0,0,0,0,0,0,0,0,0],"id":1,"left_children":[1,3,5,7,9,11,13,-1,-1,-1,-1,-1,-1,-1,-1],"loss_changes":[5.4475918E1,1.3707331E1,8.418072E0,2.1752548E0,7.1632776E0,4.989147E0,2.6569061E0,0E0,0E0,0E0,0E0,0E0,0E0,0E0,0E0],"parents":[2147483647,0,0,1,1,2,2,3,3,4,4,5,5,6,6],"right_children":[2,4,6,8,10,12,14,-1,-1,-1,-1,-1,-1,-1,-1],"split_conditions":[1E0,-3.5903928E-1,1E0,4.4776866E-1,1E0,4.581324E-2,-4.4544494E-1,-1.4665025E-1,-5.7530142E-2,-5.4897454E-2,1.0852839E-1,1.008684E-1,-6.410355E-2,4.6798043E-2,1.7165788E-1],"split_indices":[21,8,12,0,17,5,7,0,0,0,0,0,0,0,0],"split_type":[0,0,0,0,0,0,0,0,0,0,0,0,0,0,0],"sum_hessian":[5.2004105E1,3.0383688E1,2.1620417E1,2.1408358E1,8.975331E0,5.4749136E0,1.6145504E1,1.5911492E1,5.4968653E0,5.241259E0,3.734072E0,2.2390513E0,3.2358623E0,2.9946349E0,1.3150868E1],"tree_param":{"num_deleted":"0","num_feature":"22","num_nodes":"15","size_leaf_vector":"1"}},{"base_weights":[1.7679903E-4,1.0234561E0,-8.3772254E-1,1.8144889E-1,1.3214822E0,-1.2134101E0,-6.154941E-2,9.1743164E-2,-5.915345E-2,2.0620076E-2,1.535417E-1,-1.3226032E-1,7.137082E-3,-5.7591762E-2,7.753219E-2],"categories":[],"categories_nodes":[],"categories_segments":[],"categories_sizes":[],"default_left":[0,0,0,0,0,0,0,0,0,0,0,0,0,0,0],"id":2,"left_children":[1,3,5,7,9,11,13,-1,-1,-1,-1,-1,-1,-1,-1],"loss_changes":[4.5797207E1,5.7945023E0,8.488716E0,4.778408E0,3.8830128E0,2.8630486E0,5.0230494E0,0E0,0E0,0E0,0E0,0E0,0E0,0E0,0E0],"parents":[2147483647,0,0,1,1,2,2,3,3,4,4,5,5,6,6],"right_children":[2,4,6,8,10,12,14,-1,-1,-1,-1,-1,-1,-1,-1],"split_conditions":[1E0,1E0,1E0,4.581324E-2,-4.4544494E-1,8.864559E-1,-3.5903928E-1,9.1743164E-2,-5.915345E-2,2.0620076E-2,1.535417E-1,-1.3226032E-1,7.137082E-3,-5.7591762E-2,7.753219E-2],"split_indices":[19,12,12,5,7,8,8,0,0,0,0,0,0,0,0],"split_type":[0,0,0,0,0,0,0,0,0,0,0,0,0,0,0],"sum_hessian":[5.1413773E1,2.3046692E1,2.836708E1,6.4454174E0,1.6601273E1,1.8735363E1,9.631717E0,3.2060049E0,3.2394128E0,2.98802E0,1.3613254E1,1.7240648E1,1.4947165E0,6.158391E0,3.473326E0],"tree_param":{"num_deleted":"0","num_feature":"22","num_nodes":"15","size_leaf_vector":"1"}},{"base_weights":[2.348798E-3,-7.2550756E-1,1.0216279E0,-1.0912653E0,1.5732738E-1,8.131817E-2,1.3269662E0,-1.263782E-1,-3.6808524E-2,-4.8203778E-2,9.747366E-2,8.882059E-2,-5.4667678E-2,4.1491535E-2,1.4981686E-1],"categories":[],"categories_nodes":[],"categories_segments":[],"categories_sizes":[],"default_left":[0,0,0,0,0,0,0,0,0,0,0,0,0,0,0],"id":3,"left_children":[1,3,5,7,9,11,13,-1,-1,-1,-1,-1,-1,-1,-1],"loss_changes":[3.900218E1,1.0075815E1,6.179943E0,2.2562428E0,5.6223755E0,3.7455897E0,1.9495926E0,0E0,0E0,0E0,0E0,0E0,0E0,0E0,0E0],"parents":[2147483647,0,0,1,1,2,2,3,3,4,4,5,5,6,6],"right_children":[2,4,6,8,10,12,14,-1,-1,-1,-1,-1,-1,-1,-1],"split_conditions":[1E0,-3.5903928E-1,1E0,3.8229215E-1,1E0,4.581324E-2,-4.4544494E-1,-1.263782E-1,-3.6808524E-2,-4.8203778E-2,9.747366E-2,8.882059E-2,-5.4667678E-2,4.1491535E-2,1.4981686E-1],"split_indices":[21,8,12,3,17,5,7,0,0,0,0,0,0,0,0],"split_type":[0,0,0,0,0,0,0,0,0,0,0,0,0,0,0],"sum_hessian":[5.0572395E1,2.967209E1,2.0900307E1,2.0813135E1,8.858955E0,5.433572E0,1.5466735E1,1.6200844E1,4.612291E0,5.2010546E0,3.6579008E0,2.1967266E0,3.2368455E0,2.985506E0,1.2481229E1],"tree_param":{"num_deleted":"0","num_feature":"22","num_nodes":"15","size_leaf_vector":"1"}},{"base_weights":[4.652158E-3,-6.683585E-1,9.5532656E-1,-1.0108776E0,1.4782877E-1,7.917248E-2,1.2464722E0,-1.23659365E-1,-4.3381862E-2,-6.828808E-2,7.634648E-2,8.361005E-2,-5.0583113E-2,3.8468644E-2,1.414463E-1],"categories":[],"categories_nodes":[],"categories_segments":[],"categories_sizes":[],"default_left":[0,0,0,0,0,0,0,0,0,0,0,0,0,0,0],"id":4,"left_children":[1,3,5,7,9,11,13,-1,-1,-1,-1,-1,-1,-1,-1],"loss_changes":[3.296406E1,8.58376E0,5.3483086E0,2.2482147E0,5.528525E0,3.2541094E0,1.7663841E0,0E0,0E0,0E0,0E0,0E0,0E0,0E0,0E0],"parents":[2147483647,0,0,1,1,2,2,3,3,4,4,5,5,6,6],"right_children":[2,4,6,8,10,12,14,-1,-1,-1,-1,-1,-1,-1,-1],"split_conditions":[1E0,-3.5903928E-1,1E0,3.7326673E-1,1E0,4.581324E-2,-4.4544494E-1,-1.23659365E-1,-4.3381862E-2,-6.828808E-2,7.634648E-2,8.361005E-2,-5.0583113E-2,3.8468644E-2,1.414463E-1],"split_indices":[21,8,12,0,1,5,7,0,0,0,0,0,0,0,0],"split_type":[0,0,0,0,0,0,0,0,0,0,0,0,0,0,0],"sum_hessian":[4.9523376E1,2.9170017E1,2.035336E1,2.0379198E1,8.79082E0,5.393739E0,1.495962E1,1.3827618E1,6.55158E0,3.6953135E0,5.0955067E0,2.1642387E0,3.2295008E0,2.9771085E0,1.19825115E1],"tree_param":{"num_deleted":"0","num_feature":"22","num_nodes":"15","size_leaf_vector":"1"}},{"base_weights":[5.6360764E-3,8.3959484E-1,-6.630148E-1,2.7256042E-1,1.2359502E0,-1.0015135E0,1.8458115E-2,9.5575415E-2,-3.5755325E-2,5.0070126E-2,1.3049303E-1,-1.0998398E-1,7.910567E-3,-3.939033E-2,6.6171244E-2],"categories":[],"categories_nodes":[],"categories_segments":[],"categories_sizes":[],"default_left":[0,0,0,0,0,0,0,0,0,0,0,0,0,0,0],"id":5,"left_children":[1,3,5,7,9,11,13,-1,-1,-1,-1,-1,-1,-1,-1],"loss_changes":[2.807592E1,4.697898E0,6.465626E0,4.8616433E0,1.001358E-3,2.0730286E0,2.981421E0,0E0,0E0,0E0,0E0,0E0,0E0,0E0,0E0],"parents":[2147483647,0,0,1,1,2,2,3,3,4,4,5,5,6,6],"right_children":[2,4,6,8,10,12,14,-1,-1,-1,-1,-1,-1,-1,-1],"split_conditions":[1E0,-3.5903928E-1,1E0,-3.8281903E-1,-6.239179E-1,8.864559E-1,-3.5903928E-1,9.5575415E-2,-3.5755325E-2,5.0070126E-2,1.3049303E-1,-1.0998398E-1,7.910567E-3,-3.939033E-2,6.6171244E-2],"split_indices":[19,8,12,0,7,8,8,0,0,0,0,0,0,0,0],"split_type":[0,0,0,0,0,0,0,0,0,0,0,0,0,0,0],"sum_hessian":[4.8350624E1,2.1401928E1,2.6948696E1,9.499462E0,1.1902467E1,1.769144E1,9.257255E0,4.309806E0,5.189656E0,1.7292521E0,1.0173215E1,1.6199638E1,1.4918034E0,5.8772526E0,3.3800023E0],"tree_param":{"num_deleted":"0","num_feature":"22","num_nodes":"15","size_leaf_vector":"1"}},{"base_weights":[8.776669E-3,-5.7811886E-1,8.4833E-1,-8.8298804E-1,1.2865815E-1,4.170766E-2,1.1324021E0,-1.10960916E-1,-3.3464227E-2,-4.357288E-2,8.697739E-2,7.613266E-2,-4.9671512E-2,3.2736838E-2,1.3033849E-1],"categories":[],"categories_nodes":[],"categories_segments":[],"categories_sizes":[],"default_left":[0,0,0,0,0,0,0,0,0,0,0,0,0,0,0],"id":6,"left_children":[1,3,5,7,9,11,13,-1,-1,-1,-1,-1,-1,-1,-1],"loss_changes":[2.4252155E1,6.3576E0,4.592084E0,2.1602755E0,4.396771E0,2.8236175E0,1.6291008E0,0E0,0E0,0E0,0E0,0E0,0E0,0E0,0E0],"parents":[2147483647,0,0,1,1,2,2,3,3,4,4,5,5,6,6],"right_children":[2,4,6,8,10,12,14,-1,-1,-1,-1,-1,-1,-1,-1],"split_conditions":[1E0,-3.5903928E-1,1E0,3.7326673E-1,1E0,4.581324E-2,-4.4544494E-1,-1.10960916E-1,-3.3464227E-2,-4.357288E-2,8.697739E-2,7.613266E-2,-4.9671512E-2,3.2736838E-2,1.3033849E-1],"split_indices":[21,8,12,0,17,5,7,0,0,0,0,0,0,0,0],"split_type":[0,0,0,0,0,0,0,0,0,0,0,0,0,0,0],"sum_hessian":[4.7224617E1,2.7977882E1,1.9246735E1,1.9372301E1,8.605583E0,5.3115153E0,1.393522E1,1.298308E1,6.38922E0,5.1191926E0,3.4863899E0,2.0960648E0,3.2154505E0,2.9518287E0,1.0983391E1],"tree_param":{"num_deleted":"0","num_feature":"22","num_nodes":"15","size_leaf_vector":"1"}},{"base_weights":[1.0315556E-2,-5.3663135E-1,8.01465E-1,-8.2577467E-1,1.2167166E-1,4.2301666E-2,1.0772666E0,-1.001668E-1,-1.578073E-2,-7.217562E-2,5.9559494E-2,7.201978E-2,-4.601744E-2,3.0389344E-2,1.2503794E-1],"categories":[],"categories_nodes":[],"categories_segments":[],"categories_sizes":[],"default_left":[0,0,0,0,0,0,0,0,0,0,0,0,0,0,0],"id":7,"left_children":[1,3,5,7,9,11,13,-1,-1,-1,-1,-1,-1,-1,-1],"loss_changes":[2.0727957E1,5.4935455E0,4.052945E0,2.170004E0,4.2345643E0,2.462789E0,1.5368519E0,0E0,0E0,0E0,0E0,0E0,0E0,0E0,0E0],"parents":[2147483647,0,0,1,1,2,2,3,3,4,4,5,5,6,6],"right_children":[2,4,6,8,10,12,14,-1,-1,-1,-1,-1,-1,-1,-1],"split_conditions":[1E0,-3.5903928E-1,1E0,3.8229215E-1,1E0,4.581324E-2,-4.4544494E-1,-1.001668E-1,-1.578073E-2,-7.217562E-2,5.9559494E-2,7.201978E-2,-4.601744E-2,3.0389344E-2,1.2503794E-1],"split_indices":[21,8,12,3,15,5,7,0,0,0,0,0,0,0,0],"split_type":[0,0,0,0,0,0,0,0,0,0,0,0,0,0,0],"sum_hessian":[4.590798E1,2.7333302E1,1.8574678E1,1.8814915E1,8.518386E0,5.257212E0,1.3317467E1,1.449771E1,4.317205E0,2.8763995E0,5.6419864E0,2.0535061E0,3.2037058E0,2.9397478E0,1.0377719E1],"tree_param":{"num_deleted":"0","num_feature":"22","num_nodes":"15","size_leaf_vector":"1"}},{"base_weights":[1.09953685E-2,7.1065795E-1,-5.371647E-1,1.8296379E-1,1.1006125E0,-8.522807E-1,7.6299E-2,8.289589E-2,-3.765795E-2,3.260527E-2,1.15887E-1,-9.48358E-2,1.0434733E-2,-3.151077E-2,7.450166E-2],"categories":[],"categories_nodes":[],"categories_segments":[],"categories_sizes":[],"default_left":[0,0,0,0,0,0,0,0,0,0,0,0,0,0,0],"id":8,"left_children":[1,3,5,7,9,11,13,-1,-1,-1,-1,-1,-1,-1,-1],"loss_changes":[1.7883347E1,4.012295E0,5.1213827E0,3.891016E0,1.4449406E-1,1.6947355E0,2.798269E0,0E0,0E0,0E0,0E0,0E0,0E0,0E0,0E0],"parents":[2147483647,0,0,1,1,2,2,3,3,4,4,5,5,6,6],"right_children":[2,4,6,8,10,12,14,-1,-1,-1,-1,-1,-1,-1,-1],"split_conditions":[1E0,-3.5903928E-1,1E0,-3.8281903E-1,-1.8093492E0,8.864559E-1,1E0,8.289589E-2,-3.765795E-2,3.260527E-2,1.15887E-1,-9.48358E-2,1.0434733E-2,-3.151077E-2,7.450166E-2],"split_indices":[19,8,12,0,5,8,6,0,0,0,0,0,0,0,0],"split_type":[0,0,0,0,0,0,0,0,0,0,0,0,0,0,0],"sum_hessian":[4.4633297E1,1.9476881E1,2.5156418E1,8.901028E0,1.0575853E1,1.6362335E1,8.794082E0,3.907876E0,4.9931517E0,1.2012633E0,9.37459E0,1.4876848E1,1.4854867E0,5.880789E0,2.913293E0],"tree_param":{"num_deleted":"0","num_feature":"22","num_nodes":"15","size_leaf_vector":"1"}},{"base_weights":[1.3641074E-2,-4.6733996E-1,7.2062576E-1,-7.316806E-1,1.14345945E-1,1.1435828E-2,9.959238E-1,-3.5213422E-2,-1.1147415E-1,-5.5639494E-2,6.271139E-2,6.671113E-2,-4.5834966E-2,2.4718907E-2,1.1814188E-1],"categories":[],"categories_nodes":[],"categories_segments":[],"categories_sizes":[],"default_left":[0,0,0,0,0,0,0,0,0,0,0,0,0,0,0],"id":9,"left_children":[1,3,5,7,9,11,13,-1,-1,-1,-1,-1,-1,-1,-1],"loss_changes":[1.5488488E1,4.2543287E0,3.5876112E0,2.3384895E0,3.5611691E0,2.2051814E0,1.550642E0,0E0,0E0,0E0,0E0,0E0,0E0,0E0,0E0],"parents":[2147483647,0,0,1,1,2,2,3,3,4,4,5,5,6,6],"right_children":[2,4,6,8,10,12,14,-1,-1,-1,-1,-1,-1,-1,-1],"split_conditions":[1E0,-3.5903928E-1,1E0,5.207732E-1,1E0,4.581324E-2,-4.4544494E-1,-3.5213422E-2,-1.1147415E-1,-5.5639494E-2,6.271139E-2,6.671113E-2,-4.5834966E-2,2.4718907E-2,1.1814188E-1],"split_indices":[21,8,12,5,1,5,7,0,0,0,0,0,0,0,0],"split_type":[0,0,0,0,0,0,0,0,0,0,0,0,0,0,0],"sum_hessian":[4.3557796E1,2.6123936E1,1.743386E1,1.7784231E1,8.339706E0,5.1663823E0,1.2267479E1,9.89715E0,7.8870807E0,3.5764048E0,4.763301E0,1.981202E0,3.1851802E0,2.898902E0,9.368577E0],"tree_param":{"num_deleted":"0","num_feature":"22","num_nodes":"15","size_leaf_vector":"1"}},{"base_weights":[1.3486887E-2,-5.373306E-1,5.74234E-1,-8.499642E-1,8.800924E-2,5.1132012E-2,9.5325667E-1,-9.588471E-2,8.390245E-3,-4.9663793E-2,9.815257E-2,-4.3225385E-2,7.034922E-2,2.295972E-2,1.1434259E-1],"categories":[],"categories_nodes":[],"categories_segments":[],"categories_sizes":[],"default_left":[0,0,0,0,0,0,0,0,0,0,0,0,0,0,0],"id":10,"left_children":[1,3,5,7,9,11,13,-1,-1,-1,-1,-1,-1,-1,-1],"loss_changes":[1.36789E1,4.4450536E0,4.3000693E0,1.605381E0,4.8530455E0,3.5433261E0,1.4799795E0,0E0,0E0,0E0,0E0,0E0,0E0,0E0,0E0],"parents":[2147483647,0,0,1,1,2,2,3,3,4,4,5,5,6,6],"right_children":[2,4,6,8,10,12,14,-1,-1,-1,-1,-1,-1,-1,-1],"split_conditions":[1E0,1E0,1E0,8.864559E-1,-3.5903928E-1,1E0,-4.4544494E-1,-9.588471E-2,8.390245E-3,-4.9663793E-2,9.815257E-2,-4.3225385E-2,7.034922E-2,2.295972E-2,1.1434259E-1],"split_indices":[12,17,21,8,8,6,7,0,0,0,0,0,0,0,0],"split_type":[0,0,0,0,0,0,0,0,0,0,0,0,0,0,0],"sum_hessian":[4.228803E1,2.135396E1,2.0934069E1,1.3997047E1,7.356912E0,9.272157E0,1.1661913E1,1.2511533E1,1.4855144E0,4.7155814E0,2.641331E0,5.5196247E0,3.7525318E0,2.8862126E0,8.7757E0],"tree_param":{"num_deleted":"0","num_feature":"22","num_nodes":"15","size_leaf_vector":"1"}},{"base_weights":[1.5758643E-2,-4.0940642E-1,6.5843356E-1,-7.785649E-1,-6.677617E-3,5.903746E-2,9.289842E-1,-4.554534E-3,-1.1254877E-1,3.036728E-2,-6.800746E-2,-7.520217E-2,6.439518E-2,2.4978312E-2,1.1055561E-1],"categories":[],"categories_nodes":[],"categories_segments":[],"categories_sizes":[],"default_left":[0,0,0,0,0,0,0,0,0,0,0,0,0,0,0],"id":11,"left_children":[1,3,5,7,9,11,13,-1,-1,-1,-1,-1,-1,-1,-1],"loss_changes":[1.1765804E1,3.8510604E0,2.7238984E0,3.3880405E0,3.009843E0,3.5189152E0,1.1315956E0,0E0,0E0,0E0,0E0,0E0,0E0,0E0,0E0],"parents":[2147483647,0,0,1,1,2,2,3,3,4,4,5,5,6,6],"right_children":[2,4,6,8,10,12,14,-1,-1,-1,-1,-1,-1,-1,-1],"split_conditions":[1E0,5.8915656E-2,-3.5471195E-1,3.1083643E-1,1.1207227E0,-3.951423E-1,1E0,-4.554534E-3,-1.1254877E-1,3.036728E-2,-6.800746E-2,-7.520217E-2,6.439518E-2,2.4978312E-2,1.1055561E-1],"split_indices":[21,0,7,5,0,3,12,0,0,0,0,0,0,0,0],"split_type":[0,0,0,0,0,0,0,0,0,0,0,0,0,0,0],"sum_hessian":[4.1073326E1,2.4938253E1,1.613507E1,1.2524519E1,1.24137335E1,5.396816E0,1.07382555E1,4.386818E0,8.137702E0,8.873309E0,3.5404246E0,2.1415648E0,3.2552512E0,2.7138383E0,8.024417E0],"tree_param":{"num_deleted":"0","num_feature":"22","num_nodes":"15","size_leaf_vector":"1"}},{"base_weights":[1.3916407E-2,-4.7987974E-1,5.24171E-1,-7.719375E-1,9.150328E-2,-5.2033905E-3,8.333374E-1,-8.814932E-2,1.0256568E-2,-4.4859495E-2,9.095874E-2,-5.0062735E-2,4.0206295E-2,1.3853884E-2,1.0049979E-1],"categories":[],"categories_nodes":[],"categories_segments":[],"categories_sizes":[],"default_left":[0,0,0,0,0,0,0,0,0,0,0,0,0,0,0],"id":12,"left_children":[1,3,5,7,9,11,13,-1,-1,-1,-1,-1,-1,-1,-1],"loss_changes":[1.0584675E1,3.6357164E0,3.383553E0,1.4550171E0,3.9959197E0,1.937777E0,1.4161434E0,0E0,0E0,0E0,0E0,0E0,0E0,0E0,0E0],"parents":[2147483647,0,0,1,1,2,2,3,3,4,4,5,5,6,6],"right_children":[2,4,6,8,10,12,14,-1,-1,-1,-1,-1,-1,-1,-1],"split_conditions":[1E0,1E0,-3.5471195E-1,8.864559E-1,-3.5903928E-1,1.341543E-1,1E0,-8.814932E-2,1.0256568E-2,-4.4859495E-2,9.095874E-2,-5.0062735E-2,4.0206295E-2,1.3853884E-2,1.0049979E-1],"split_indices":[12,17,7,8,8,5,1,0,0,0,0,0,0,0,0],"split_type":[0,0,0,0,0,0,0,0,0,0,0,0,0,0,0],"sum_hessian":[4.0010727E1,2.0363546E1,1.9647182E1,1.3243328E1,7.1202173E0,7.606323E0,1.204086E1,1.1761841E1,1.4814876E0,4.5608206E0,2.559397E0,3.3283157E0,4.278007E0,2.7435093E0,9.297351E0],"tree_param":{"num_deleted":"0","num_feature":"22","num_nodes":"15","size_leaf_vector":"1"}},{"base_weights":[1.4741808E-2,-3.704004E-1,6.118614E-1,-7.389217E-1,-1.1639671E-2,6.942453E-2,8.7364227E-1,-1.6998976E-2,-1.0533793E-1,4.5804203E-2,-9.173503E-2,-6.872536E-2,6.1197735E-2,1.10758774E-1,3.423049E-2],"categories":[],"categories_nodes":[],"categories_segments":[],"categories_sizes":[],"default_left":[0,0,0,0,0,0,0,0,0,0,0,0,0,0,0],"id":13,"left_children":[1,3,5,7,9,11,13,-1,-1,-1,-1,-1,-1,-1,-1],"loss_changes":[9.430096E0,3.290157E0,2.2210708E0,2.0200224E0,6.230574E0,3.0138643E0,9.573498E-1,0E0,0E0,0E0,0E0,0E0,0E0,0E0,0E0],"parents":[2147483647,0,0,1,1,2,2,3,3,4,4,5,5,6,6],"right_children":[2,4,6,8,10,12,14,-1,-1,-1,-1,-1,-1,-1,-1],"split_conditions":[1E0,1E0,-3.5471195E-1,-8.3876234E-1,5.7585967E-1,-3.951423E-1,3.8229215E-1,-1.6998976E-2,-1.0533793E-1,4.5804203E-2,-9.173503E-2,-6.872536E-2,6.1197735E-2,1.10758774E-1,3.423049E-2],"split_indices":[21,1,7,7,5,3,3,0,0,0,0,0,0,0,0],"split_type":[0,0,0,0,0,0,0,0,0,0,0,0,0,0,0],"sum_hessian":[3.9019234E1,2.395071E1,1.5068522E1,1.12919235E1,1.2658787E1,5.316788E0,9.751734E0,4.5679493E0,6.723974E0,8.661431E0,3.9973555E0,2.108892E0,3.2078965E0,6.0176578E0,3.734076E0],"tree_param":{"num_deleted":"0","num_feature":"22","num_nodes":"15","size_leaf_vector":"1"}},{"base_weights":[1.2786286E-2,-4.4023293E-1,4.8243883E-1,-7.106696E-1,8.4208146E-2,5.629754E-2,8.354756E-1,-8.210995E-2,1.1766435E-2,-4.156811E-2,8.461344E-2,-3.6893368E-2,6.2884234E-2,-6.3479594E-3,9.6787445E-2],"categories":[],"categories_nodes":[],"categories_segments":[],"categories_sizes":[],"default_left":[0,0,0,0,0,0,0,0,0,0,0,0,0,0,0],"id":14,"left_children":[1,3,5,7,9,11,13,-1,-1,-1,-1,-1,-1,-1,-1],"loss_changes":[8.529638E0,2.9561405E0,2.9122963E0,1.3387551E0,3.338513E0,2.662947E0,1.3332815E0,0E0,0E0,0E0,0E0,0E0,0E0,0E0,0E0],"parents":[2147483647,0,0,1,1,2,2,3,3,4,4,5,5,6,6],"right_children":[2,4,6,8,10,12,14,-1,-1,-1,-1,-1,-1,-1,-1],"split_conditions":[1E0,1E0,1E0,8.864559E-1,-3.5903928E-1,4.4776866E-1,-1.6768376E0,-8.210995E-2,1.1766435E-2,-4.156811E-2,8.461344E-2,-3.6893368E-2,6.2884234E-2,-6.3479594E-3,9.6787445E-2],"split_indices":[12,17,21,8,8,0,5,0,0,0,0,0,0,0,0],"split_type":[0,0,0,0,0,0,0,0,0,0,0,0,0,0,0],"sum_hessian":[3.8091885E1,1.9421175E1,1.867071E1,1.2579335E1,6.8418403E0,8.984829E0,9.685881E0,1.1107292E1,1.472043E0,4.4057336E0,2.4361067E0,5.3597484E0,3.6250806E0,1.3102375E0,8.375643E0],"tree_param":{"num_deleted":"0","num_feature":"22","num_nodes":"15","size_leaf_vector":"1"}},{"base_weights":[1.4308024E-2,-4.088997E-1,4.5231622E-1,-6.658155E-1,8.27899E-2,6.838947E-2,8.321243E-1,-7.730405E-2,1.1058253E-2,-3.864075E-2,8.020511E-2,-8.990471E-2,3.4316104E-2,-6.5901773E-3,1.0411539E-1],"categories":[],"categories_nodes":[],"categories_segments":[],"categories_sizes":[],"default_left":[0,0,0,0,0,0,0,0,0,0,0,0,0,0,0],"id":15,"left_children":[1,3,5,7,9,11,13,-1,-1,-1,-1,-1,-1,-1,-1],"loss_changes":[7.243355E0,2.5678408E0,2.7408295E0,1.1823201E0,2.9138572E0,3.1345022E0,1.8622985E0,0E0,0E0,0E0,0E0,0E0,0E0,0E0,0E0],"parents":[2147483647,0,0,1,1,2,2,3,3,4,4,5,5,6,6],"right_children":[2,4,6,8,10,12,14,-1,-1,-1,-1,-1,-1,-1,-1],"split_conditions":[1E0,1E0,-3.5903928E-1,8.864559E-1,-3.5903928E-1,-9.0745956E-1,1E0,-7.730405E-2,1.1058253E-2,-3.864075E-2,8.020511E-2,-8.990471E-2,3.4316104E-2,-6.5901773E-3,1.0411539E-1],"split_indices":[12,17,8,8,8,2,1,0,0,0,0,0,0,0,0],"split_type":[0,0,0,0,0,0,0,0,0,0,0,0,0,0,0],"sum_hessian":[3.707769E1,1.8891245E1,1.8186445E1,1.2175311E1,6.715934E0,9.631034E0,8.555411E0,1.0701673E1,1.4736377E0,4.344589E0,2.3713446E0,1.6277938E0,8.003241E0,1.7446835E0,6.8107276E0],"tree_param":{"num_deleted":"0","num_feature":"22","num_nodes":"15","size_leaf_vector":"1"}},{"base_weights":[1.3792244E-2,-3.1737822E-1,5.4263663E-1,-6.729133E-1,2.5179325E-2,2.8599529E-2,8.115711E-1,-1.2592076E-2,-9.865638E-2,4.538183E-2,-8.509391E-2,-6.5767094E-2,5.366952E-2,1.0544343E-1,2.9653523E-2],"categories":[],"categories_nodes":[],"categories_segments":[],"categories_sizes":[],"default_left":[0,0,0,0,0,0,0,0,0,0,0,0,0,0,0],"id":16,"left_children":[1,3,5,7,9,11,13,-1,-1,-1,-1,-1,-1,-1,-1],"loss_changes":[6.6794453E0,2.8764114E0,2.0056996E0,1.858551E0,5.2386484E0,2.4721704E0,8.8798285E-1,0E0,0E0,0E0,0E0,0E0,0E0,0E0,0E0],"parents":[2147483647,0,0,1,1,2,2,3,3,4,4,5,5,6,6],"right_children":[2,4,6,8,10,12,14,-1,-1,-1,-1,-1,-1,-1,-1],"split_conditions":[1E0,1E0,-3.5471195E-1,-8.3876234E-1,5.7585967E-1,-3.951423E-1,3.8229215E-1,-1.2592076E-2,-9.865638E-2,4.538183E-2,-8.509391E-2,-6.5767094E-2,5.366952E-2,1.0544343E-1,2.9653523E-2],"split_indices":[21,1,7,7,5,3,3,0,0,0,0,0,0,0,0],"split_type":[0,0,0,0,0,0,0,0,0,0,0,0,0,0,0],"sum_hessian":[3.6154915E1,2.247844E1,1.3676477E1,1.0557056E1,1.1921383E1,5.077592E0,8.598886E0,4.3581333E0,6.1989226E0,8.328631E0,3.5927515E0,2.034826E0,3.042766E0,5.1317334E0,3.467152E0],"tree_param":{"num_deleted":"0","num_feature":"22","num_nodes":"15","size_leaf_vector":"1"}},{"base_weights":[1.1889413E-2,-3.7655443E-1,4.1549304E-1,-6.142557E-1,7.528958E-2,-3.796956E-2,7.1788573E-1,-7.096847E-2,1.9131629E-2,-3.5988066E-2,7.496141E-2,-5.0300833E-2,3.518125E-2,2.0147428E-2,9.667851E-2],"categories":[],"categories_nodes":[],"categories_segments":[],"categories_sizes":[],"default_left":[0,0,0,0,0,0,0,0,0,0,0,0,0,0,0],"id":17,"left_children":[1,3,5,7,9,11,13,-1,-1,-1,-1,-1,-1,-1,-1],"loss_changes":[5.8508234E0,2.0904503E0,2.535047E0,1.1029387E0,2.456488E0,1.675362E0,1.2219391E0,0E0,0E0,0E0,0E0,0E0,0E0,0E0,0E0],"parents":[2147483647,0,0,1,1,2,2,3,3,4,4,5,5,6,6],"right_children":[2,4,6,8,10,12,14,-1,-1,-1,-1,-1,-1,-1,-1],"split_conditions":[1E0,1E0,-3.5471195E-1,1.3114212E0,-3.5903928E-1,1.341543E-1,1E0,-7.096847E-2,1.9131629E-2,-3.5988066E-2,7.496141E-2,-5.0300833E-2,3.518125E-2,2.0147428E-2,9.667851E-2],"split_indices":[12,17,7,3,8,5,6,0,0,0,0,0,0,0,0],"split_type":[0,0,0,0,0,0,0,0,0,0,0,0,0,0,0],"sum_hessian":[3.532137E1,1.803286E1,1.7288507E1,1.1581006E1,6.4518547E0,7.266392E0,1.0022115E1,1.0460834E1,1.1201724E0,4.204695E0,2.2471592E0,3.1808808E0,4.0855117E0,3.847942E0,6.174173E0],"tree_param":{"num_deleted":"0","num_feature":"22","num_nodes":"15","size_leaf_vector":"1"}},{"base_weights":[1.3550556E-2,-2.906131E-1,5.0888836E-1,-6.2545216E-1,4.59111E-2,3.9903145E-2,7.6690084E-1,1.9400936E-3,-9.805886E-2,3.0924743E-2,-5.585562E-2,-6.0599238E-2,5.1453568E-2,1.0191383E-1,2.5986252E-2],"categories":[],"categories_nodes":[],"categories_segments":[],"categories_sizes":[],"default_left":[0,0,0,0,0,0,0,0,0,0,0,0,0,0,0],"id":18,"left_children":[1,3,5,7,9,11,13,-1,-1,-1,-1,-1,-1,-1,-1],"loss_changes":[5.5042267E0,2.5823915E0,1.6499989E0,2.6362114E0,2.120209E0,2.1462903E0,8.740306E-1,0E0,0E0,0E0,0E0,0E0,0E0,0E0,0E0],"parents":[2147483647,0,0,1,1,2,2,3,3,4,4,5,5,6,6],"right_children":[2,4,6,8,10,12,14,-1,-1,-1,-1,-1,-1,-1,-1],"split_conditions":[1E0,5.8915656E-2,-3.5471195E-1,3.1083643E-1,1.1207227E0,-3.951423E-1,3.8229215E-1,1.9400936E-3,-9.805886E-2,3.0924743E-2,-5.585562E-2,-6.0599238E-2,5.1453568E-2,1.0191383E-1,2.5986252E-2],"split_indices":[21,0,7,5,0,3,3,0,0,0,0,0,0,0,0],"split_type":[0,0,0,0,0,0,0,0,0,0,0,0,0,0,0],"sum_hessian":[3.4551594E1,2.1662794E1,1.28888E1,1.0428225E1,1.123457E1,4.984041E0,7.904758E0,4.03922E0,6.389004E0,8.165614E0,3.0689554E0,1.9939065E0,2.9901347E0,4.6042757E0,3.3004823E0],"tree_param":{"num_deleted":"0","num_feature":"22","num_nodes":"15","size_leaf_vector":"1"}},{"base_weights":[1.23125445E-2,-2.724244E-1,4.814906E-1,-6.163202E-1,5.2051164E-2,3.4793187E-2,7.3454523E-1,-7.753931E-2,2.8177653E-2,4.204642E-2,-7.6347075E-2,-5.687953E-2,4.8095196E-2,1.4395617E-2,9.4900444E-2],"categories":[],"categories_nodes":[],"categories_segments":[],"categories_sizes":[],"default_left":[0,0,0,0,0,0,0,0,0,0,0,0,0,0,0],"id":19,"left_children":[1,3,5,7,9,11,13,-1,-1,-1,-1,-1,-1,-1,-1],"loss_changes":[4.7758756E0,2.5176985E0,1.4996035E0,1.7745438E0,4.041603E0,1.8702279E0,9.479923E-1,0E0,0E0,0E0,0E0,0E0,0E0,0E0,0E0],"parents":[2147483647,0,0,1,1,2,2,3,3,4,4,5,5,6,6],"right_children":[2,4,6,8,10,12,14,-1,-1,-1,-1,-1,-1,-1,-1],"split_conditions":[1E0,1E0,-3.5471195E-1,1E0,5.7585967E-1,-3.951423E-1,1E0,-7.753931E-2,2.8177653E-2,4.204642E-2,-7.6347075E-2,-5.687953E-2,4.8095196E-2,1.4395617E-2,9.4900444E-2],"split_indices":[21,1,7,6,5,3,12,0,0,0,0,0,0,0,0],"split_type":[0,0,0,0,0,0,0,0,0,0,0,0,0,0,0],"sum_hessian":[3.3767757E1,2.1275402E1,1.2492356E1,9.891961E0,1.1383442E1,4.9290257E0,7.56333E0,8.519581E0,1.3723806E0,8.174861E0,3.2085805E0,1.9780871E0,2.9509387E0,2.460028E0,5.1033025E0],"tree_param":{"num_deleted":"0","num_feature":"22","num_nodes":"15","size_leaf_vector":"1"}},{"base_weights":[1.1850451E-2,-2.793202E-1,4.4576153E-1,-3.329716E-2,-7.1833146E-1,-1.3508788E-1,6.856673E-1,-5.221345E-2,3.0737987E-2,-8.604079E-3,-8.5095905E-2,3.4198463E-2,-6.246983E-2,1.539433E-2,9.492716E-2],"categories":[],"categories_nodes":[],"categories_segments":[],"categories_sizes":[],"default_left":[0,0,0,0,0,0,0,0,0,0,0,0,0,0,0],"id":20,"left_children":[1,3,5,7,9,11,13,-1,-1,-1,-1,-1,-1,-1,-1],"loss_changes":[4.4145384E0,2.2371907E0,2.0464067E0,2.5694196E0,5.532057E-1,1.3660408E0,1.2677221E0,0E0,0E0,0E0,0E0,0E0,0E0,0E0,0E0],"parents":[2147483647,0,0,1,1,2,2,3,3,4,4,5,5,6,6],"right_children":[2,4,6,8,10,12,14,-1,-1,-1,-1,-1,-1,-1,-1],"split_conditions":[-3.5903928E-1,5.316891E-1,1E0,-3.951423E-1,1E0,1E0,1E0,-5.221345E-2,3.0737987E-2,-8.604079E-3,-8.5095905E-2,3.4198463E-2,-6.246983E-2,1.539433E-2,9.492716E-2],"split_indices":[8,5,1,3,19,13,12,0,0,0,0,0,0,0,0],"split_type":[0,0,0,0,0,0,0,0,0,0,0,0,0,0,0],"sum_hessian":[3.295563E1,1.993486E1,1.3020769E1,1.3464926E1,6.4699345E0,3.9336643E0,9.087105E0,5.31122E0,8.153706E0,1.4076799E0,5.0622544E0,2.1450558E0,1.7886086E0,3.5368385E0,5.5502663E0],"tree_param":{"num_deleted":"0","num_feature":"22","num_nodes":"15","size_leaf_vector":"1"}},{"base_weights":[9.884988E-3,-3.1958792E-1,3.583004E-1,-9.4019696E-2,-1.5469168E-1,-2.0601263E-2,6.3260245E-1,-5.7160795E-2,9.155639E-3,-4.785982E-2,3.659765E-2,-6.8892324E-3,7.932628E-2],"categories":[],"categories_nodes":[],"categories_segments":[],"categories_sizes":[],"default_left":[0,0,0,0,0,0,0,0,0,0,0,0,0],"id":21,"left_children":[1,3,5,-1,7,9,11,-1,-1,-1,-1,-1,-1],"loss_changes":[3.940489E0,1.6616971E0,1.7456474E0,0E0,1.6075805E0,1.5860653E0,1.14803E0,0E0,0E0,0E0,0E0,0E0,0E0],"parents":[2147483647,0,0,1,1,2,2,4,4,5,5,6,6],"right_children":[2,4,6,-1,8,10,12,-1,-1,-1,-1,-1,-1],"split_conditions":[1E0,-1.0636212E0,-3.5471195E-1,-9.4019696E-2,1E0,1.341543E-1,-9.0745956E-1,-5.7160795E-2,9.155639E-3,-4.785982E-2,3.659765E-2,-6.8892324E-3,7.932628E-2],"split_indices":[12,0,7,0,1,5,2,0,0,0,0,0,0],"split_type":[0,0,0,0,0,0,0,0,0,0,0,0,0],"sum_hessian":[3.2329266E1,1.6658854E1,1.5670413E1,2.5100806E0,1.4148773E1,6.9689255E0,8.701488E0,4.763146E0,9.385628E0,3.0808537E0,3.8880715E0,1.7279391E0,6.973549E0],"tree_param":{"num_deleted":"0","num_feature":"22","num_nodes":"13","size_leaf_vector":"1"}},{"base_weights":[6.5856576E-3,-2.617369E-1,4.132423E-1,-3.674729E-2,-6.802264E-1,6.2565744E-1,-1.7406371E-1,-6.9397464E-2,2.037526E-2,-8.175112E-3,-8.133342E-2,8.16058E-3,8.56391E-2,4.627916E-2,-7.5695E-2],"categories":[],"categories_nodes":[],"categories_segments":[],"categories_sizes":[],"default_left":[0,0,0,0,0,0,0,0,0,0,0,0,0,0,0],"id":22,"left_children":[1,3,5,7,9,11,13,-1,-1,-1,-1,-1,-1,-1,-1],"loss_changes":[3.6872442E0,1.8933266E0,1.7839644E0,2.402868E0,4.9644256E-1,1.1952548E0,1.9646171E0,0E0,0E0,0E0,0E0,0E0,0E0,0E0,0E0],"parents":[2147483647,0,0,1,1,2,2,3,3,4,4,5,5,6,6],"right_children":[2,4,6,8,10,12,14,-1,-1,-1,-1,-1,-1,-1,-1],"split_conditions":[-3.5903928E-1,5.316891E-1,1.0525752E0,-7.937334E-1,1E0,-2.742494E-1,1E0,-6.9397464E-2,2.037526E-2,-8.175112E-3,-8.133342E-2,8.16058E-3,8.56391E-2,4.627916E-2,-7.5695E-2],"split_indices":[8,5,0,2,19,0,13,0,0,0,0,0,0,0,0],"split_type":[0,0,0,0,0,0,0,0,0,0,0,0,0,0,0],"sum_hessian":[3.1800974E1,1.9373926E1,1.2427048E1,1.3307381E1,6.066546E0,9.078325E0,3.3487225E0,3.0598924E0,1.0247488E1,1.3974676E0,4.6690784E0,3.106685E0,5.9716406E0,1.6987361E0,1.6499865E0],"tree_param":{"num_deleted":"0","num_feature":"22","num_nodes":"15","size_leaf_vector":"1"}},{"base_weights":[3.6203233E-3,-3.0089498E-1,3.2860908E-1,-5.1788664E-1,9.669284E-2,-8.064446E-3,6.393668E-1,-6.396113E-2,1.977868E-2,-2.9240558E-2,6.8554334E-2,-2.478447E-2,6.931012E-2,-1.2561107E-2,7.8307554E-2],"categories":[],"categories_nodes":[],"categories_segments":[],"categories_sizes":[],"default_left":[0,0,0,0,0,0,0,0,0,0,0,0,0,0,0],"id":23,"left_children":[1,3,5,7,9,11,13,-1,-1,-1,-1,-1,-1,-1,-1],"loss_changes":[3.2936685E0,1.532953E0,1.6889939E0,1.1088862E0,1.7839895E0,1.6365812E0,1.0197935E0,0E0,0E0,0E0,0E0,0E0,0E0,0E0,0E0],"parents":[2147483647,0,0,1,1,2,2,3,3,4,4,5,5,6,6],"right_children":[2,4,6,8,10,12,14,-1,-1,-1,-1,-1,-1,-1,-1],"split_conditions":[1E0,1E0,1E0,8.864559E-1,-3.5903928E-1,6.256985E-1,-1.6768376E0,-6.396113E-2,1.977868E-2,-2.9240558E-2,6.8554334E-2,-2.478447E-2,6.931012E-2,-1.2561107E-2,7.8307554E-2],"split_indices":[12,17,6,8,8,2,5,0,0,0,0,0,0,0,0],"split_type":[0,0,0,0,0,0,0,0,0,0,0,0,0,0,0],"sum_hessian":[3.1282345E1,1.6188147E1,1.5094199E1,1.0276801E1,5.9113455E0,7.7125287E0,7.38167E0,8.873791E0,1.4030102E0,3.8625162E0,2.048829E0,6.2289248E0,1.4836042E0,1.1873269E0,6.194343E0],"tree_param":{"num_deleted":"0","num_feature":"22","num_nodes":"15","size_leaf_vector":"1"}},{"base_weights":[6.666687E-3,-2.3033956E-1,4.0736976E-1,-4.8079026E-1,1.2913089E-1,5.948612E-3,6.626415E-1,-4.995597E-3,-7.7453956E-2,-2.2858148E-2,8.4857605E-2,-5.3807944E-2,4.2235702E-2,9.6074745E-2,1.2441187E-2],"categories":[],"categories_nodes":[],"categories_segments":[],"categories_sizes":[],"default_left":[0,0,0,0,0,0,0,0,0,0,0,0,0,0,0],"id":24,"left_children":[1,3,5,7,9,11,13,-1,-1,-1,-1,-1,-1,-1,-1],"loss_changes":[3.102422E0,1.9117103E0,1.2395518E0,1.5205114E0,2.5679302E0,1.5244676E0,1.0692089E0,0E0,0E0,0E0,0E0,0E0,0E0,0E0,0E0],"parents":[2147483647,0,0,1,1,2,2,3,3,4,4,5,5,6,6],"right_children":[2,4,6,8,10,12,14,-1,-1,-1,-1,-1,-1,-1,-1],"split_conditions":[1E0,3.7326673E-1,-3.5471195E-1,3.1083643E-1,3.3867896E-1,-3.951423E-1,3.8229215E-1,-4.995597E-3,-7.7453956E-2,-2.2858148E-2,8.4857605E-2,-5.3807944E-2,4.2235702E-2,9.6074745E-2,1.2441187E-2],"split_indices":[21,0,7,5,5,3,3,0,0,0,0,0,0,0,0],"split_type":[0,0,0,0,0,0,0,0,0,0,0,0,0,0,0],"sum_hessian":[3.0679647E1,1.954463E1,1.1135017E1,1.1320147E1,8.224483E0,4.7262216E0,6.4087963E0,5.0635843E0,6.256562E0,5.948924E0,2.275559E0,1.9224254E0,2.803796E0,3.619225E0,2.7895713E0],"tree_param":{"num_deleted":"0","num_feature":"22","num_nodes":"15","size_leaf_vector":"1"}},{"base_weights":[8.546857E-3,-2.3139703E-1,3.7241584E-1,-5.855562E-1,2.2880124E-2,-6.153739E-2,6.794825E-1,-7.84406E-2,-3.2503416E-3,2.4470387E-2,-7.685879E-2,3.292997E-2,-7.20771E-2,8.036529E-2,-4.513434E-3],"categories":[],"categories_nodes":[],"categories_segments":[],"categories_sizes":[],"default_left":[0,0,0,0,0,0,0,0,0,0,0,0,0,0,0],"id":25,"left_children":[1,3,5,7,9,11,13,-1,-1,-1,-1,-1,-1,-1,-1],"loss_changes":[2.8032615E0,1.7578149E0,1.7407821E0,8.689227E-1,2.3366032E0,1.8348868E0,7.15559E-1,0E0,0E0,0E0,0E0,0E0,0E0,0E0,0E0],"parents":[2147483647,0,0,1,1,2,2,3,3,4,4,5,5,6,6],"right_children":[2,4,6,8,10,12,14,-1,-1,-1,-1,-1,-1,-1,-1],"split_conditions":[-3.5903928E-1,-3.951423E-1,1E0,1E0,8.850534E-1,1.0525752E0,9.8907024E-1,-7.84406E-2,-3.2503416E-3,2.4470387E-2,-7.685879E-2,3.292997E-2,-7.20771E-2,8.036529E-2,-4.513434E-3],"split_indices":[8,3,15,6,5,0,3,0,0,0,0,0,0,0,0],"split_type":[0,0,0,0,0,0,0,0,0,0,0,0,0,0,0],"sum_hessian":[3.0120647E1,1.837066E1,1.1749987E1,7.132973E0,1.1237687E1,5.200344E0,6.5496426E0,4.938882E0,2.1940913E0,9.317192E0,1.9204952E0,3.5789738E0,1.6213703E0,5.4983683E0,1.0512741E0],"tree_param":{"num_deleted":"0","num_feature":"22","num_nodes":"15","size_leaf_vector":"1"}},{"base_weights":[4.5131315E-3,-2.1827443E-1,3.857267E-1,-4.6169418E-1,1.22869335E-1,1.2783437E-2,6.289221E-1,-6.8800272E-3,-7.389642E-2,-2.1132847E-2,7.8089766E-2,-4.812655E-2,3.8889974E-2,9.31576E-2,1.0895751E-2],"categories":[],"categories_nodes":[],"categories_segments":[],"categories_sizes":[],"default_left":[0,0,0,0,0,0,0,0,0,0,0,0,0,0,0],"id":26,"left_children":[1,3,5,7,9,11,13,-1,-1,-1,-1,-1,-1,-1,-1],"loss_changes":[2.6919062E0,1.7190126E0,1.0519288E0,1.2446682E0,2.171807E0,1.2340033E0,1.0084484E0,0E0,0E0,0E0,0E0,0E0,0E0,0E0,0E0],"parents":[2147483647,0,0,1,1,2,2,3,3,4,4,5,5,6,6],"right_children":[2,4,6,8,10,12,14,-1,-1,-1,-1,-1,-1,-1,-1],"split_conditions":[1E0,3.7326673E-1,-3.5471195E-1,3.1083643E-1,3.3867896E-1,-3.951423E-1,3.8229215E-1,-6.8800272E-3,-7.389642E-2,-2.1132847E-2,7.8089766E-2,-4.812655E-2,3.8889974E-2,9.31576E-2,1.0895751E-2],"split_indices":[21,0,7,5,5,3,3,0,0,0,0,0,0,0,0],"split_type":[0,0,0,0,0,0,0,0,0,0,0,0,0,0,0],"sum_hessian":[2.9704384E1,1.9017603E1,1.0686782E1,1.0892205E1,8.125398E0,4.6336246E0,6.0531573E0,5.0228786E0,5.8693266E0,5.838832E0,2.2865653E0,1.8819789E0,2.7516458E0,3.3257413E0,2.7274158E0],"tree_param":{"num_deleted":"0","num_feature":"22","num_nodes":"15","size_leaf_vector":"1"}},{"base_weights":[6.4794975E-3,-2.7203885E-1,3.0392614E-1,-8.664E-2,-1.2768693E-1,1.3684638E-1,8.649837E-2,4.9799588E-2,-2.7465755E-2,-1.753029E-2,5.371831E-2],"categories":[],"categories_nodes":[],"categories_segments":[],"categories_sizes":[],"default_left":[0,0,0,0,0,0,0,0,0,0,0],"id":27,"left_children":[1,3,5,-1,7,9,-1,-1,-1,-1,-1],"loss_changes":[2.5834439E0,1.272152E0,1.2942612E0,0E0,1.4370781E0,1.6936605E0,0E0,0E0,0E0,0E0,0E0],"parents":[2147483647,0,0,1,1,2,2,4,4,5,5],"right_children":[2,4,6,-1,8,10,-1,-1,-1,-1,-1],"split_conditions":[1E0,-1.0636212E0,6.8711895E-1,-8.664E-2,-5.0672734E-1,-3.5903928E-1,8.649837E-2,4.9799588E-2,-2.7465755E-2,-1.753029E-2,5.371831E-2],"split_indices":[12,0,2,0,0,8,0,0,0,0,0],"split_type":[0,0,0,0,0,0,0,0,0,0,0],"sum_hessian":[2.9186302E1,1.5116848E1,1.4069453E1,1.9765427E0,1.31403055E1,1.1799529E1,2.2699244E0,2.045178E0,1.1095127E1,6.945847E0,4.853682E0],"tree_param":{"num_deleted":"0","num_feature":"22","num_nodes":"11","size_leaf_vector":"1"}},{"base_weights":[7.887459E-3,-2.5150394E-1,2.864577E-1,-6.080074E-1,-2.7336251E-2,-1.3710804E-2,5.684094E-1,-9.214453E-2,1.4552896E-2,2.0518238E-2,-6.431155E-2,-4.4664685E-2,3.1687688E-2,-1.5732665E-2,7.158666E-2],"categories":[],"categories_nodes":[],"categories_segments":[],"categories_sizes":[],"default_left":[0,0,0,0,0,0,0,0,0,0,0,0,0,0,0],"id":28,"left_children":[1,3,5,7,9,11,13,-1,-1,-1,-1,-1,-1,-1,-1],"loss_changes":[2.2263358E0,1.2597033E0,1.263989E0,1.5791838E0,1.6857904E0,1.3102242E0,9.342034E-1,0E0,0E0,0E0,0E0,0E0,0E0,0E0,0E0],"parents":[2147483647,0,0,1,1,2,2,3,3,4,4,5,5,6,6],"right_children":[2,4,6,8,10,12,14,-1,-1,-1,-1,-1,-1,-1,-1],"split_conditions":[1E0,1E0,1E0,1E0,8.4088284E-1,1E0,-1.6768376E0,-9.214453E-2,1.4552896E-2,2.0518238E-2,-6.431155E-2,-4.4664685E-2,3.1687688E-2,-1.5732665E-2,7.158666E-2],"split_indices":[12,1,6,10,5,1,5,0,0,0,0,0,0,0,0],"split_type":[0,0,0,0,0,0,0,0,0,0,0,0,0,0,0],"sum_hessian":[2.8813568E1,1.4970711E1,1.3842856E1,5.118406E0,9.852305E0,7.1656303E0,6.677226E0,3.4574366E0,1.6609691E0,7.635811E0,2.2164948E0,2.9505432E0,4.215087E0,1.1162884E0,5.560938E0],"tree_param":{"num_deleted":"0","num_feature":"22","num_nodes":"15","size_leaf_vector":"1"}},{"base_weights":[4.332519E-3,-2.1042284E-1,3.3451936E-1,-5.5215234E-1,2.6327493E-2,-8.8463254E-2,6.413854E-1,-8.587851E-2,-1.7784817E-2,7.912326E-2,-1.7827122E-2,2.938118E-2,-7.012042E-2,2.324852E-2,9.226858E-2],"categories":[],"categories_nodes":[],"categories_segments":[],"categories_sizes":[],"default_left":[0,0,0,0,0,0,0,0,0,0,0,0,0,0,0],"id":29,"left_children":[1,3,5,7,9,11,13,-1,-1,-1,-1,-1,-1,-1,-1],"loss_changes":[2.155042E0,1.5053604E0,1.6106747E0,7.1805334E-1,1.9939917E0,1.590912E0,5.9749746E-1,0E0,0E0,0E0,0E0,0E0,0E0,0E0,0E0],"parents":[2147483647,0,0,1,1,2,2,3,3,4,4,5,5,6,6],"right_children":[2,4,6,8,10,12,14,-1,-1,-1,-1,-1,-1,-1,-1],"split_conditions":[-3.5903928E-1,-3.951423E-1,1E0,-3.9569184E-1,-7.492564E-1,1.0525752E0,1E0,-8.587851E-2,-1.7784817E-2,7.912326E-2,-1.7827122E-2,2.938118E-2,-7.012042E-2,2.324852E-2,9.226858E-2],"split_indices":[8,3,15,2,5,0,17,0,0,0,0,0,0,0,0],"split_type":[0,0,0,0,0,0,0,0,0,0,0,0,0,0,0],"sum_hessian":[2.8398804E1,1.742694E1,1.0971864E1,6.586975E0,1.0839965E1,4.912381E0,6.059482E0,2.9093022E0,3.6776729E0,1.6825193E0,9.157446E0,3.3456209E0,1.5667604E0,3.2140229E0,2.8454595E0],"tree_param":{"num_deleted":"0","num_feature":"22","num_nodes":"15","size_leaf_vector":"1"}},{"base_weights":[5.2043907E-3,-1.9247736E-1,3.4854162E-1,-4.3447432E-1,1.3728528E-1,2.5900698E-3,5.859613E-1,-6.5776825E-2,-3.9145937E-3,-2.6904827E-2,6.305404E-2,-5.4725137E-2,2.9806638E-2,8.917027E-2,8.185618E-3],"categories":[],"categories_nodes":[],"categories_segments":[],"categories_sizes":[],"default_left":[0,0,0,0,0,0,0,0,0,0,0,0,0,0,0],"id":30,"left_children":[1,3,5,7,9,11,13,-1,-1,-1,-1,-1,-1,-1,-1],"loss_changes":[2.0371602E0,1.581049E0,8.9883006E-1,9.660809E-1,1.9392209E0,1.05109E0,9.282229E-1,0E0,0E0,0E0,0E0,0E0,0E0,0E0,0E0],"parents":[2147483647,0,0,1,1,2,2,3,3,4,4,5,5,6,6],"right_children":[2,4,6,8,10,12,14,-1,-1,-1,-1,-1,-1,-1,-1],"split_conditions":[1E0,3.7326673E-1,-3.5471195E-1,1E0,8.998377E-2,-5.566952E-1,3.8229215E-1,-6.5776825E-2,-3.9145937E-3,-2.6904827E-2,6.305404E-2,-5.4725137E-2,2.9806638E-2,8.917027E-2,8.185618E-3],"split_indices":[21,0,7,17,5,2,3,0,0,0,0,0,0,0,0],"split_type":[0,0,0,0,0,0,0,0,0,0,0,0,0,0,0],"sum_hessian":[2.8026527E1,1.806482E1,9.961708E0,1.0235754E1,7.829065E0,4.465622E0,5.496086E0,6.116889E0,4.1188655E0,4.5420017E0,3.2870634E0,1.2630877E0,3.2025342E0,2.9425426E0,2.5535436E0],"tree_param":{"num_deleted":"0","num_feature":"22","num_nodes":"15","size_leaf_vector":"1"}},{"base_weights":[6.1107897E-3,-3.366784E-1,1.9153881E-1,-5.6524545E-1,4.581205E-2,-5.5420402E-2,5.289539E-1,3.6162527E-3,-8.9887425E-2,-2.7946724E-2,6.59493E-2,7.412113E-3,8.0742195E-2],"categories":[],"categories_nodes":[],"categories_segments":[],"categories_sizes":[],"default_left":[0,0,0,0,0,0,0,0,0,0,0,0,0],"id":31,"left_children":[1,3,5,7,-1,9,11,-1,-1,-1,-1,-1,-1],"loss_changes":[1.8835992E0,2.1499414E0,1.6300361E0,1.7444272E0,0E0,2.105898E0,9.803872E-1,0E0,0E0,0E0,0E0,0E0,0E0],"parents":[2147483647,0,0,1,1,2,2,3,3,5,5,6,6],"right_children":[2,4,6,8,-1,10,12,-1,-1,-1,-1,-1,-1],"split_conditions":[1E0,1E0,-3.5903928E-1,-8.3876234E-1,4.581205E-2,4.3720052E-1,1E0,3.6162527E-3,-8.9887425E-2,-2.7946724E-2,6.59493E-2,7.412113E-3,8.0742195E-2],"split_indices":[1,6,8,7,0,3,12,0,0,0,0,0,0],"split_type":[0,0,0,0,0,0,0,0,0,0,0,0,0],"sum_hessian":[2.7619167E1,9.40923E0,1.8209936E1,7.532007E0,1.8772235E0,1.0996894E1,7.213043E0,3.0056152E0,4.5263915E0,8.83666E0,2.1602333E0,3.219949E0,3.9930942E0],"tree_param":{"num_deleted":"0","num_feature":"22","num_nodes":"13","size_leaf_vector":"1"}},{"base_weights":[8.599808E-3,-2.2009517E-1,2.5725672E-1,-7.946143E-2,-8.8788345E-2,9.525475E-2,8.051413E-2,4.6823855E-2,-2.4829015E-2,-3.277684E-2,3.161236E-2],"categories":[],"categories_nodes":[],"categories_segments":[],"categories_sizes":[],"default_left":[0,0,0,0,0,0,0,0,0,0,0],"id":32,"left_children":[1,3,5,-1,7,9,-1,-1,-1,-1,-1],"loss_changes":[1.6593064E0,1.077606E0,1.1626768E0,0E0,1.3169558E0,1.2164943E0,0E0,0E0,0E0,0E0,0E0],"parents":[2147483647,0,0,1,1,2,2,4,4,5,5],"right_children":[2,4,6,-1,8,10,-1,-1,-1,-1,-1],"split_conditions":[1E0,-1.0636212E0,6.8711895E-1,-7.946143E-2,-3.9534855E-1,1E0,8.051413E-2,4.6823855E-2,-2.4829015E-2,-3.277684E-2,3.161236E-2],"split_indices":[12,0,2,0,0,1,0,0,0,0,0],"split_type":[0,0,0,0,0,0,0,0,0,0,0],"sum_hessian":[2.7183254E1,1.4219836E1,1.2963419E1,1.7055962E0,1.251424E1,1.0911035E1,2.0523841E0,2.3548355E0,1.0159405E1,3.5766993E0,7.3343353E0],"tree_param":{"num_deleted":"0","num_feature":"22","num_nodes":"11","size_leaf_vector":"1"}},{"base_weights":[8.5587455E-3,-1.7955919E-1,3.014789E-1,-5.1005715E-1,4.4268712E-2,-1.1249108E-1,6.0973513E-1,-8.069997E-2,-1.5538203E-2,2.4019413E-2,-6.953361E-2,2.5131945E-2,-6.7495905E-2,2.2544451E-2,8.8437825E-2],"categories":[],"categories_nodes":[],"categories_segments":[],"categories_sizes":[],"default_left":[0,0,0,0,0,0,0,0,0,0,0,0,0,0,0],"id":33,"left_children":[1,3,5,7,9,11,13,-1,-1,-1,-1,-1,-1,-1,-1],"loss_changes":[1.591161E0,1.3254199E0,1.5082055E0,6.3198066E-1,1.8219571E0,1.32771E0,4.9954057E-1,0E0,0E0,0E0,0E0,0E0,0E0,0E0,0E0],"parents":[2147483647,0,0,1,1,2,2,3,3,4,4,5,5,6,6],"right_children":[2,4,6,8,10,12,14,-1,-1,-1,-1,-1,-1,-1,-1],"split_conditions":[-3.5903928E-1,-3.951423E-1,1E0,-3.9569184E-1,8.850534E-1,1.0525752E0,1E0,-8.069997E-2,-1.5538203E-2,2.4019413E-2,-6.953361E-2,2.5131945E-2,-6.7495905E-2,2.2544451E-2,8.8437825E-2],"split_indices":[8,3,15,2,5,0,17,0,0,0,0,0,0,0,0],"split_type":[0,0,0,0,0,0,0,0,0,0,0,0,0,0,0],"sum_hessian":[2.6893454E1,1.661198E1,1.0281473E1,6.191296E0,1.0420685E1,4.6593347E0,5.6221385E0,2.6757622E0,3.5155337E0,8.772137E0,1.648548E0,3.1652198E0,1.4941149E0,3.1022377E0,2.5199006E0],"tree_param":{"num_deleted":"0","num_feature":"22","num_nodes":"15","size_leaf_vector":"1"}},{"base_weights":[5.150332E-3,-1.7042777E-1,3.1273052E-1,-4.0854278E-1,1.4691302E-1,-8.964631E-3,5.44541E-1,-6.9629475E-3,-6.6158526E-2,4.3994617E-2,-4.3966535E-2,-4.5531355E-2,3.453701E-2,8.612248E-2,4.2123194E-3],"categories":[],"categories_nodes":[],"categories_segments":[],"categories_sizes":[],"default_left":[0,0,0,0,0,0,0,0,0,0,0,0,0,0,0],"id":34,"left_children":[1,3,5,7,9,11,13,-1,-1,-1,-1,-1,-1,-1,-1],"loss_changes":[1.5434852E0,1.436305E0,7.7896047E-1,8.690052E-1,1.661925E0,1.000401E0,9.261881E-1,0E0,0E0,0E0,0E0,0E0,0E0,0E0,0E0],"parents":[2147483647,0,0,1,1,2,2,3,3,4,4,5,5,6,6],"right_children":[2,4,6,8,10,12,14,-1,-1,-1,-1,-1,-1,-1,-1],"split_conditions":[1E0,3.7326673E-1,-3.5471195E-1,3.1083643E-1,1.1207227E0,-3.951423E-1,3.8229215E-1,-6.9629475E-3,-6.6158526E-2,4.3994617E-2,-4.3966535E-2,-4.5531355E-2,3.453701E-2,8.612248E-2,4.2123194E-3],"split_indices":[21,0,7,5,0,3,3,0,0,0,0,0,0,0,0],"split_type":[0,0,0,0,0,0,0,0,0,0,0,0,0,0,0],"sum_hessian":[2.6593836E1,1.7213593E1,9.380244E0,9.670207E0,7.5433846E0,4.331094E0,5.0491505E0,4.678804E0,4.9914036E0,5.197088E0,2.3462968E0,1.7905676E0,2.5405264E0,2.6589816E0,2.3901691E0],"tree_param":{"num_deleted":"0","num_feature":"22","num_nodes":"15","size_leaf_vector":"1"}},{"base_weights":[4.917525E-3,-3.0490327E-1,1.7205207E-1,-5.220304E-1,4.2471595E-2,1.1236197E-2,6.052918E-1,5.4981117E-3,-8.590629E-2,-2.5560856E-2,4.420376E-2,8.186847E-3,8.933732E-2],"categories":[],"categories_nodes":[],"categories_segments":[],"categories_sizes":[],"default_left":[0,0,0,0,0,0,0,0,0,0,0,0,0],"id":35,"left_children":[1,3,5,7,-1,9,11,-1,-1,-1,-1,-1,-1],"loss_changes":[1.4600492E0,1.7878928E0,1.2679766E0,1.616137E0,0E0,1.7640806E0,6.708828E-1,0E0,0E0,0E0,0E0,0E0,0E0],"parents":[2147483647,0,0,1,1,2,2,3,3,5,5,6,6],"right_children":[2,4,6,8,-1,10,12,-1,-1,-1,-1,-1,-1],"split_conditions":[1E0,1E0,4.3720052E-1,-8.3876234E-1,4.2471595E-2,-3.5903928E-1,-1.1137645E-1,5.4981117E-3,-8.590629E-2,-2.5560856E-2,4.420376E-2,8.186847E-3,8.933732E-2],"split_indices":[1,6,3,7,0,8,2,0,0,0,0,0,0],"split_type":[0,0,0,0,0,0,0,0,0,0,0,0,0],"sum_hessian":[2.618312E1,8.88623E0,1.729689E1,7.067525E0,1.8187059E0,1.3362681E1,3.9342084E0,2.9145608E0,4.152964E0,8.502669E0,4.8600116E0,1.852512E0,2.0816965E0],"tree_param":{"num_deleted":"0","num_feature":"22","num_nodes":"13","size_leaf_vector":"1"}},{"base_weights":[7.2517847E-3,-2.0457248E-1,2.4005313E-1,-3.9805177E-1,1.3992576E-1,8.615288E-2,7.6396644E-2,-5.1925182E-2,2.1541689E-2,-5.372792E-2,4.78622E-2,-3.0233636E-2,2.928031E-2],"categories":[],"categories_nodes":[],"categories_segments":[],"categories_sizes":[],"default_left":[0,0,0,0,0,0,0,0,0,0,0,0,0],"id":36,"left_children":[1,3,5,7,9,11,-1,-1,-1,-1,-1,-1,-1],"loss_changes":[1.3726697E0,1.0283728E0,1.0022902E0,8.260015E-1,1.6306429E0,1.0010269E0,0E0,0E0,0E0,0E0,0E0,0E0,0E0],"parents":[2147483647,0,0,1,1,2,2,3,3,4,4,5,5],"right_children":[2,4,6,8,10,12,-1,-1,-1,-1,-1,-1,-1],"split_conditions":[1E0,1E0,6.8711895E-1,8.864559E-1,-6.9248194E-1,1E0,7.6396644E-2,-5.1925182E-2,2.1541689E-2,-5.372792E-2,4.78622E-2,-3.0233636E-2,2.928031E-2],"split_indices":[12,17,2,8,2,1,0,0,0,0,0,0,0],"split_type":[0,0,0,0,0,0,0,0,0,0,0,0,0],"sum_hessian":[2.5840023E1,1.3593056E1,1.2246966E1,8.6048765E0,4.988179E0,1.0366294E1,1.8806721E0,7.313554E0,1.2913232E0,1.4675586E0,3.5206206E0,3.438708E0,6.927586E0],"tree_param":{"num_deleted":"0","num_feature":"22","num_nodes":"13","size_leaf_vector":"1"}},{"base_weights":[7.999557E-3,-2.7651134E-1,1.5983558E-1,-7.9336084E-2,5.7615053E-2,-1.6682142E-1,3.5331562E-1,-5.6028426E-2,3.5347056E-2,-4.544307E-2,4.0900405E-2,5.6782674E-2,-5.0037008E-2],"categories":[],"categories_nodes":[],"categories_segments":[],"categories_sizes":[],"default_left":[0,0,0,0,0,0,0,0,0,0,0,0,0],"id":37,"left_children":[1,3,5,-1,7,9,11,-1,-1,-1,-1,-1,-1],"loss_changes":[1.188481E0,1.7007296E0,1.1905708E0,0E0,1.4325517E0,1.4013937E0,2.4020562E0,0E0,0E0,0E0,0E0,0E0,0E0],"parents":[2147483647,0,0,1,1,2,2,4,4,5,5,6,6],"right_children":[2,4,6,-1,8,10,12,-1,-1,-1,-1,-1,-1],"split_conditions":[1E0,-5.566952E-1,-3.951423E-1,-7.9336084E-2,2.447869E-1,-3.5903928E-1,8.4088284E-1,-5.6028426E-2,3.5347056E-2,-4.544307E-2,4.0900405E-2,5.6782674E-2,-5.0037008E-2],"split_indices":[1,2,3,0,0,8,5,0,0,0,0,0,0],"split_type":[0,0,0,0,0,0,0,0,0,0,0,0,0],"sum_hessian":[2.548868E1,8.583593E0,1.6905087E1,2.830598E0,5.7529955E0,6.33959E0,1.0565497E1,1.5733178E0,4.179678E0,4.368474E0,1.971116E0,8.711384E0,1.8541131E0],"tree_param":{"num_deleted":"0","num_feature":"22","num_nodes":"13","size_leaf_vector":"1"}},{"base_weights":[3.3656468E-3,-1.9467112E-1,2.215174E-1,-3.7381163E-1,1.22830875E-1,7.367324E-2,7.310304E-2,-4.8986472E-2,1.9883564E-2,-5.051563E-2,4.341382E-2,-2.065346E-2,3.52157E-2],"categories":[],"categories_nodes":[],"categories_segments":[],"categories_sizes":[],"default_left":[0,0,0,0,0,0,0,0,0,0,0,0,0],"id":38,"left_children":[1,3,5,7,9,11,-1,-1,-1,-1,-1,-1,-1],"loss_changes":[1.1716129E0,8.5494596E-1,9.176629E-1,7.181642E-1,1.3694851E0,9.395686E-1,0E0,0E0,0E0,0E0,0E0,0E0,0E0],"parents":[2147483647,0,0,1,1,2,2,3,3,4,4,5,5],"right_children":[2,4,6,8,10,12,-1,-1,-1,-1,-1,-1,-1],"split_conditions":[1E0,1E0,6.8711895E-1,8.864559E-1,-6.9248194E-1,1E0,7.310304E-2,-4.8986472E-2,1.9883564E-2,-5.051563E-2,4.341382E-2,-2.065346E-2,3.52157E-2],"split_indices":[12,17,2,8,2,6,0,0,0,0,0,0,0],"split_type":[0,0,0,0,0,0,0,0,0,0,0,0,0],"sum_hessian":[2.51212E1,1.322409E1,1.189711E1,8.340738E0,4.8833513E0,1.0108536E1,1.7885739E0,7.05544E0,1.2852986E0,1.4120961E0,3.4712553E0,5.1674523E0,4.941084E0],"tree_param":{"num_deleted":"0","num_feature":"22","num_nodes":"13","size_leaf_vector":"1"}},{"base_weights":[5.001386E-3,-1.4621438E-1,2.7208877E-1,-3.7166E-1,1.4609708E-1,4.2695373E-1,-2.0761459E-1,-7.000472E-3,-6.529695E-2,-1.5975729E-2,6.8625376E-2,6.15925E-2,-6.8000103E-3,1.6895566E-2,-4.8676662E-2],"categories":[],"categories_nodes":[],"categories_segments":[],"categories_sizes":[],"default_left":[0,0,0,0,0,0,0,0,0,0,0,0,0,0,0],"id":39,"left_children":[1,3,5,7,9,11,13,-1,-1,-1,-1,-1,-1,-1,-1],"loss_changes":[1.0817971E0,1.1827712E0,8.0748403E-1,7.986206E-1,1.4600639E0,7.566519E-1,4.012081E-1,0E0,0E0,0E0,0E0,0E0,0E0,0E0,0E0],"parents":[2147483647,0,0,1,1,2,2,3,3,4,4,5,5,6,6],"right_children":[2,4,6,8,10,12,14,-1,-1,-1,-1,-1,-1,-1,-1],"split_conditions":[1E0,3.7326673E-1,1.0525752E0,-1.1071506E-1,3.3867896E-1,6.278436E-1,1E0,-7.000472E-3,-6.529695E-2,-1.5975729E-2,6.8625376E-2,6.15925E-2,-6.8000103E-3,1.6895566E-2,-4.8676662E-2],"split_indices":[21,0,0,3,5,2,13,0,0,0,0,0,0,0,0],"split_type":[0,0,0,0,0,0,0,0,0,0,0,0,0,0,0],"sum_hessian":[2.4800196E1,1.6123934E1,8.676262E0,8.949878E0,7.1740565E0,6.641967E0,2.0342953E0,4.921395E0,4.0284824E0,5.0300922E0,2.143964E0,4.6298866E0,2.0120802E0,1.0340873E0,1.000208E0],"tree_param":{"num_deleted":"0","num_feature":"22","num_nodes":"15","size_leaf_vector":"1"}},{"base_weights":[4.700861E-3,-2.6640183E-1,1.4815234E-1,-4.7430816E-1,3.998516E-2,-5.5072955E-3,5.618617E-1,7.4756197E-3,-8.0898665E-2,-2.2937784E-2,3.7026264E-2,5.995287E-3,8.481618E-2],"categories":[],"categories_nodes":[],"categories_segments":[],"categories_sizes":[],"default_left":[0,0,0,0,0,0,0,0,0,0,0,0,0],"id":40,"left_children":[1,3,5,7,-1,9,11,-1,-1,-1,-1,-1,-1],"loss_changes":[1.033098E0,1.4638195E0,1.1061146E0,1.4328363E0,0E0,1.2325693E0,6.258018E-1,0E0,0E0,0E0,0E0,0E0,0E0],"parents":[2147483647,0,0,1,1,2,2,3,3,5,5,6,6],"right_children":[2,4,6,8,-1,10,12,-1,-1,-1,-1,-1,-1],"split_conditions":[1E0,1E0,4.3720052E-1,-8.3876234E-1,3.998516E-2,-3.5903928E-1,-1.1137645E-1,7.4756197E-3,-8.0898665E-2,-2.2937784E-2,3.7026264E-2,5.995287E-3,8.481618E-2],"split_indices":[1,6,3,7,0,8,2,0,0,0,0,0,0],"split_type":[0,0,0,0,0,0,0,0,0,0,0,0,0],"sum_hessian":[2.45497E1,8.198544E0,1.6351156E1,6.468215E0,1.7303289E0,1.2642264E1,3.7088926E0,2.7436655E0,3.7245493E0,8.166518E0,4.475746E0,1.7864672E0,1.9224255E0],"tree_param":{"num_deleted":"0","num_feature":"22","num_nodes":"13","size_leaf_vector":"1"}},{"base_weights":[6.9618286E-3,-1.777355E-1,2.1099024E-1,-7.012835E-2,-6.406395E-2,6.637895E-2,7.03864E-2,5.402578E-2,-2.1971444E-2,-1.9560799E-2,3.5285704E-2],"categories":[],"categories_nodes":[],"categories_segments":[],"categories_sizes":[],"default_left":[0,0,0,0,0,0,0,0,0,0,0],"id":41,"left_children":[1,3,5,-1,7,9,-1,-1,-1,-1,-1],"loss_changes":[9.891945E-1,7.7623796E-1,8.4113324E-1,0E0,1.2885932E0,8.747281E-1,0E0,0E0,0E0,0E0,0E0],"parents":[2147483647,0,0,1,1,2,2,4,4,5,5],"right_children":[2,4,6,-1,8,10,-1,-1,-1,-1,-1],"split_conditions":[1E0,-1.0636212E0,6.8711895E-1,-7.012835E-2,-5.0672734E-1,-3.5471195E-1,7.03864E-2,5.402578E-2,-2.1971444E-2,-1.9560799E-2,3.5285704E-2],"split_indices":[12,0,2,0,0,7,0,0,0,0,0],"split_type":[0,0,0,0,0,0,0,0,0,0,0],"sum_hessian":[2.4254925E1,1.2798192E1,1.1456733E1,1.3608783E0,1.1437314E1,9.735092E0,1.7216403E0,1.8364038E0,9.60091E0,5.250582E0,4.4845104E0],"tree_param":{"num_deleted":"0","num_feature":"22","num_nodes":"11","size_leaf_vector":"1"}},{"base_weights":[8.204275E-3,-1.4124449E-1,2.4593487E-1,3.0586398E-1,-2.7134234E-1,-1.7266129E-1,5.657151E-1,-2.1254983E-2,7.390454E-2,-1.5584615E-2,-7.927389E-2,1.7550359E-2,-6.523646E-2,2.2358702E-2,8.173379E-2],"categories":[],"categories_nodes":[],"categories_segments":[],"categories_sizes":[],"default_left":[0,0,0,0,0,0,0,0,0,0,0,0,0,0,0],"id":42,"left_children":[1,3,5,7,9,11,13,-1,-1,-1,-1,-1,-1,-1,-1],"loss_changes":[9.2477834E-1,1.0146649E0,1.4408832E0,1.0733612E0,6.5549713E-1,9.682706E-1,3.2710886E-1,0E0,0E0,0E0,0E0,0E0,0E0,0E0,0E0],"parents":[2147483647,0,0,1,1,2,2,3,3,4,4,5,5,6,6],"right_children":[2,4,6,8,10,12,14,-1,-1,-1,-1,-1,-1,-1,-1],"split_conditions":[-3.5903928E-1,-5.756267E-1,1E0,-4.3306592E-1,1E0,1.0525752E0,1E0,-2.1254983E-2,7.390454E-2,-1.5584615E-2,-7.927389E-2,1.7550359E-2,-6.523646E-2,2.2358702E-2,8.173379E-2],"split_indices":[8,5,15,3,9,0,17,0,0,0,0,0,0,0,0],"split_type":[0,0,0,0,0,0,0,0,0,0,0,0,0,0,0],"sum_hessian":[2.4051445E1,1.5016943E1,9.034501E0,3.080191E0,1.1936752E1,4.111959E0,4.922542E0,1.6340067E0,1.4461843E0,1.0835457E1,1.1012948E0,2.7500997E0,1.3618594E0,2.886453E0,2.0360894E0],"tree_param":{"num_deleted":"0","num_feature":"22","num_nodes":"15","size_leaf_vector":"1"}},{"base_weights":[8.156941E-3,-2.5064406E-1,1.4349735E-1,-7.4297756E-2,6.252155E-2,-1.0916665E-3,5.3429264E-1,4.7473125E-2,-3.365676E-2,3.657198E-2,-2.1072662E-2,5.7792403E-3,8.070319E-2],"categories":[],"categories_nodes":[],"categories_segments":[],"categories_sizes":[],"default_left":[0,0,0,0,0,0,0,0,0,0,0,0,0],"id":43,"left_children":[1,3,5,-1,7,9,11,-1,-1,-1,-1,-1,-1],"loss_changes":[9.050953E-1,1.416296E0,9.571545E-1,0E0,1.2048655E0,1.1040237E0,5.477979E-1,0E0,0E0,0E0,0E0,0E0,0E0],"parents":[2147483647,0,0,1,1,2,2,4,4,5,5,6,6],"right_children":[2,4,6,-1,8,10,12,-1,-1,-1,-1,-1,-1],"split_conditions":[1E0,-5.566952E-1,4.3720052E-1,-7.4297756E-2,-6.239179E-1,-3.9534855E-1,-1.1137645E-1,4.7473125E-2,-3.365676E-2,3.657198E-2,-2.1072662E-2,5.7792403E-3,8.070319E-2],"split_indices":[1,2,3,0,7,0,2,0,0,0,0,0,0],"split_type":[0,0,0,0,0,0,0,0,0,0,0,0,0],"sum_hessian":[2.3813648E1,7.8845944E0,1.5929053E1,2.5318115E0,5.352783E0,1.2355056E1,3.573998E0,2.5398724E0,2.8129106E0,4.222364E0,8.132691E0,1.7421681E0,1.8318298E0],"tree_param":{"num_deleted":"0","num_feature":"22","num_nodes":"13","size_leaf_vector":"1"}},{"base_weights":[8.920902E-3,-1.6744764E-1,2.083359E-1,-3.2304776E-1,2.8364995E-1,-4.0570232E-1,4.3180728E-1,2.8733043E-2,-5.5421866E-2,-4.73107E-2,7.650064E-2,-6.2874176E-2,8.823309E-3,6.4740494E-2,-3.86818E-2],"categories":[],"categories_nodes":[],"categories_segments":[],"categories_sizes":[],"default_left":[0,0,0,0,0,0,0,0,0,0,0,0,0,0,0],"id":44,"left_children":[1,3,5,7,9,11,13,-1,-1,-1,-1,-1,-1,-1,-1],"loss_changes":[9.025166E-1,1.0494221E0,1.8250849E0,1.6568079E0,1.8307172E0,4.6572322E-1,1.8918002E0,0E0,0E0,0E0,0E0,0E0,0E0,0E0,0E0],"parents":[2147483647,0,0,1,1,2,2,3,3,4,4,5,5,6,6],"right_children":[2,4,6,8,10,12,14,-1,-1,-1,-1,-1,-1,-1,-1],"split_conditions":[1E0,5.923616E-1,-6.9248194E-1,-6.2314415E-1,-1.1137645E-1,-1.2967688E-1,7.6152843E-1,2.8733043E-2,-5.5421866E-2,-4.73107E-2,7.650064E-2,-6.2874176E-2,8.823309E-3,6.4740494E-2,-3.86818E-2],"split_indices":[17,3,2,2,2,3,3,0,0,0,0,0,0,0,0],"split_type":[0,0,0,0,0,0,0,0,0,0,0,0,0,0,0],"sum_hessian":[2.3669266E1,1.2645509E1,1.1023758E1,9.613368E0,3.0321407E0,2.7238655E0,8.299892E0,2.5740287E0,7.039339E0,1.1855052E0,1.8466355E0,1.6884934E0,1.035372E0,6.735223E0,1.5646691E0],"tree_param":{"num_deleted":"0","num_feature":"22","num_nodes":"15","size_leaf_vector":"1"}},{"base_weights":[6.9680396E-3,-2.502408E-1,1.4107312E-1,-7.448345E-2,2.8480245E-2,2.5147927E-1,-3.054746E-1,4.051871E-2,-6.651371E-2,-1.9569192E-2,5.1396906E-2,1.0207128E-2,-5.072521E-2],"categories":[],"categories_nodes":[],"categories_segments":[],"categories_sizes":[],"default_left":[0,0,0,0,0,0,0,0,0,0,0,0,0],"id":45,"left_children":[1,3,5,-1,7,9,11,-1,-1,-1,-1,-1,-1],"loss_changes":[8.777752E-1,1.2247972E0,8.9984024E-1,0E0,1.9802347E0,1.735987E0,3.61034E-1,0E0,0E0,0E0,0E0,0E0,0E0],"parents":[2147483647,0,0,1,1,2,2,4,4,5,5,6,6],"right_children":[2,4,6,-1,8,10,12,-1,-1,-1,-1,-1,-1],"split_conditions":[1E0,5.8915656E-2,8.4088284E-1,-7.448345E-2,1.0525752E0,-3.951423E-1,1E0,4.051871E-2,-6.651371E-2,-1.9569192E-2,5.1396906E-2,1.0207128E-2,-5.072521E-2],"split_indices":[1,0,5,0,0,3,13,0,0,0,0,0,0],"split_type":[0,0,0,0,0,0,0,0,0,0,0,0,0],"sum_hessian":[2.342445E1,7.7308826E0,1.5693567E1,2.183647E0,5.547236E0,1.293284E1,2.7607272E0,3.8643332E0,1.6829026E0,4.8777328E0,8.055107E0,1.0778494E0,1.6828779E0],"tree_param":{"num_deleted":"0","num_feature":"22","num_nodes":"13","size_leaf_vector":"1"}},{"base_weights":[1.6254839E-3,-7.7649295E-2,4.0336207E-1,-3.407885E-1,5.952696E-2,5.935663E-2,4.412614E-3,-7.966007E-2,-1.4495435E-3,4.6700705E-2,-1.4386594E-2],"categories":[],"categories_nodes":[],"categories_segments":[],"categories_sizes":[],"default_left":[0,0,0,0,0,0,0,0,0,0,0],"id":46,"left_children":[1,3,5,7,9,-1,-1,-1,-1,-1,-1],"loss_changes":[7.9972166E-1,7.7793664E-1,2.5653923E-1,1.0803002E0,1.2812241E0,0E0,0E0,0E0,0E0,0E0,0E0],"parents":[2147483647,0,0,1,1,2,2,3,3,4,4],"right_children":[2,4,6,8,10,-1,-1,-1,-1,-1,-1],"split_conditions":[8.864559E-1,1E0,1E0,-5.566952E-1,-3.9534855E-1,5.935663E-2,4.412614E-3,-7.966007E-2,-1.4495435E-3,4.6700705E-2,-1.4386594E-2],"split_indices":[8,1,13,2,0,0,0,0,0,0,0],"split_type":[0,0,0,0,0,0,0,0,0,0,0],"sum_hessian":[2.312745E1,1.9989613E1,3.1378396E0,6.341219E0,1.3648393E1,1.6250981E0,1.5127413E0,2.044211E0,4.297008E0,4.1127567E0,9.535636E0],"tree_param":{"num_deleted":"0","num_feature":"22","num_nodes":"11","size_leaf_vector":"1"}},{"base_weights":[1.965669E-3,-1.2675764E-1,2.3096935E-1,-3.5034108E-1,1.5865378E-1,3.7504357E-1,-1.966765E-2,-4.6825665E-3,-6.4096324E-2,-1.2633043E-2,6.327279E-2,-1.8161451E-3,6.06999E-2],"categories":[],"categories_nodes":[],"categories_segments":[],"categories_sizes":[],"default_left":[0,0,0,0,0,0,0,0,0,0,0,0,0],"id":47,"left_children":[1,3,5,7,9,11,-1,-1,-1,-1,-1,-1,-1],"loss_changes":[7.3557514E-1,1.0755757E0,6.268018E-1,7.88075E-1,1.1215163E0,6.547643E-1,0E0,0E0,0E0,0E0,0E0,0E0,0E0],"parents":[2147483647,0,0,1,1,2,2,3,3,4,4,5,5],"right_children":[2,4,6,8,10,12,-1,-1,-1,-1,-1,-1,-1],"split_conditions":[1E0,3.7326673E-1,1.0525752E0,-1.1071506E-1,3.3867896E-1,1E0,-1.966765E-2,-4.6825665E-3,-6.4096324E-2,-1.2633043E-2,6.327279E-2,-1.8161451E-3,6.06999E-2],"split_indices":[21,0,0,3,5,12,0,0,0,0,0,0,0],"split_type":[0,0,0,0,0,0,0,0,0,0,0,0,0],"sum_hessian":[2.2960083E1,1.4984024E1,7.976059E0,8.2745075E0,6.7095165E0,6.058089E0,1.9179703E0,4.615434E0,3.6590734E0,4.648591E0,2.0609257E0,2.589736E0,3.4683528E0],"tree_param":{"num_deleted":"0","num_feature":"22","num_nodes":"13","size_leaf_vector":"1"}},{"base_weights":[2.7061738E-3,-1.3413048E-1,2.225775E-1,2.87123E-1,-2.5560582E-1,-1.5478535E-1,5.111373E-1,-1.9565577E-2,6.9212005E-2,-1.4370734E-2,-7.489959E-2,1.881998E-2,-6.1885487E-2,1.87894E-2,7.651292E-2],"categories":[],"categories_nodes":[],"categories_segments":[],"categories_sizes":[],"default_left":[0,0,0,0,0,0,0,0,0,0,0,0,0,0,0],"id":48,"left_children":[1,3,5,7,9,11,13,-1,-1,-1,-1,-1,-1,-1,-1],"loss_changes":[7.4387515E-1,8.5388136E-1,1.1114064E0,8.94987E-1,5.751709E-1,8.9248896E-1,3.1637394E-1,0E0,0E0,0E0,0E0,0E0,0E0,0E0,0E0],"parents":[2147483647,0,0,1,1,2,2,3,3,4,4,5,5,6,6],"right_children":[2,4,6,8,10,12,14,-1,-1,-1,-1,-1,-1,-1,-1],"split_conditions":[-3.5903928E-1,-5.756267E-1,1E0,-4.3306592E-1,1E0,1.0525752E0,1E0,-1.9565577E-2,6.9212005E-2,-1.4370734E-2,-7.489959E-2,1.881998E-2,-6.1885487E-2,1.87894E-2,7.651292E-2],"split_indices":[8,5,15,3,9,0,17,0,0,0,0,0,0,0,0],"split_type":[0,0,0,0,0,0,0,0,0,0,0,0,0,0,0],"sum_hessian":[2.2732298E1,1.4252335E1,8.479963E0,2.8847916E0,1.1367542E1,3.875452E0,4.6045117E0,1.5518256E0,1.332966E0,1.03186E1,1.0489432E0,2.5702708E0,1.3051814E0,2.791573E0,1.8129386E0],"tree_param":{"num_deleted":"0","num_feature":"22","num_nodes":"15","size_leaf_vector":"1"}},{"base_weights":[3.1015621E-3,-1.5430988E-1,1.8357512E-1,-2.9763487E-1,2.550029E-1,-3.9378244E-1,3.925863E-1,2.708289E-2,-5.1214635E-2,-4.480433E-2,7.010906E-2,-5.368609E-2,-4.6452517E-3,5.980608E-2,-3.7232168E-2],"categories":[],"categories_nodes":[],"categories_segments":[],"categories_sizes":[],"default_left":[0,0,0,0,0,0,0,0,0,0,0,0,0,0,0],"id":49,"left_children":[1,3,5,7,9,11,13,-1,-1,-1,-1,-1,-1,-1,-1],"loss_changes":[6.9647396E-1,8.4473026E-1,1.5319242E0,1.3786197E0,1.5489836E0,1.5063041E-1,1.618447E0,0E0,0E0,0E0,0E0,0E0,0E0,0E0,0E0],"parents":[2147483647,0,0,1,1,2,2,3,3,4,4,5,5,6,6],"right_children":[2,4,6,8,10,12,14,-1,-1,-1,-1,-1,-1,-1,-1],"split_conditions":[1E0,5.923616E-1,-6.9248194E-1,-6.2314415E-1,-1.1137645E-1,-1.6760051E-1,7.6152843E-1,2.708289E-2,-5.1214635E-2,-4.480433E-2,7.010906E-2,-5.368609E-2,-4.6452517E-3,5.980608E-2,-3.7232168E-2],"split_indices":[17,3,2,2,2,3,3,0,0,0,0,0,0,0,0],"split_type":[0,0,0,0,0,0,0,0,0,0,0,0,0,0,0],"sum_hessian":[2.2519161E1,1.2105529E1,1.0413631E1,9.168077E0,2.9374518E0,2.5329008E0,7.8807306E0,2.4398475E0,6.7282295E0,1.1386014E0,1.7988505E0,1.407442E0,1.1254587E0,6.383958E0,1.4967726E0],"tree_param":{"num_deleted":"0","num_feature":"22","num_nodes":"15","size_leaf_vector":"1"}},{"base_weights":[1.2599288E-3,-2.473589E-1,1.2844376E-1,-4.4081408E-1,3.492896E-2,2.2913782E-1,-2.7734756E-1,4.463833E-3,-7.4039474E-2,-1.817177E-2,4.731146E-2,9.2704E-3,-4.6399083E-2],"categories":[],"categories_nodes":[],"categories_segments":[],"categories_sizes":[],"default_left":[0,0,0,0,0,0,0,0,0,0,0,0,0],"id":50,"left_children":[1,3,5,7,-1,9,11,-1,-1,-1,-1,-1,-1],"loss_changes":[7.685724E-1,1.1036603E0,7.203362E-1,1.0009446E0,0E0,1.4317567E0,2.9497376E-1,0E0,0E0,0E0,0E0,0E0,0E0],"parents":[2147483647,0,0,1,1,2,2,3,3,5,5,6,6],"right_children":[2,4,6,8,-1,10,12,-1,-1,-1,-1,-1,-1],"split_conditions":[1E0,1E0,8.4088284E-1,-8.3876234E-1,3.492896E-2,-3.951423E-1,1E0,4.463833E-3,-7.4039474E-2,-1.817177E-2,4.731146E-2,9.2704E-3,-4.6399083E-2],"split_indices":[1,6,5,7,0,3,13,0,0,0,0,0,0],"split_type":[0,0,0,0,0,0,0,0,0,0,0,0,0],"sum_hessian":[2.2301512E1,7.227774E0,1.5073738E1,5.655302E0,1.572472E0,1.242572E1,2.648018E0,2.4829037E0,3.1723983E0,4.724639E0,7.7010813E0,1.0565464E0,1.5914713E0],"tree_param":{"num_deleted":"0","num_feature":"22","num_nodes":"13","size_leaf_vector":"1"}},{"base_weights":[-8.6265925E-4,-7.649149E-2,3.8967654E-1,-3.275936E-1,5.2193824E-2,5.4809768E-2,6.6693127E-3,-7.601813E-2,-1.9469857E-3,4.416501E-2,-1.42214745E-2],"categories":[],"categories_nodes":[],"categories_segments":[],"categories_sizes":[],"default_left":[0,0,0,0,0,0,0,0,0,0,0],"id":51,"left_children":[1,3,5,7,9,-1,-1,-1,-1,-1,-1],"loss_changes":[7.1097755E-1,6.684267E-1,1.6328561E-1,9.138675E-1,1.1371485E0,0E0,0E0,0E0,0E0,0E0,0E0],"parents":[2147483647,0,0,1,1,2,2,3,3,4,4],"right_children":[2,4,6,8,10,-1,-1,-1,-1,-1,-1],"split_conditions":[8.864559E-1,1E0,1E0,-5.566952E-1,-3.9534855E-1,5.4809768E-2,6.6693127E-3,-7.601813E-2,-1.9469857E-3,4.416501E-2,-1.42214745E-2],"split_indices":[8,1,13,2,0,0,0,0,0,0,0],"split_type":[0,0,0,0,0,0,0,0,0,0,0],"sum_hessian":[2.2062368E1,1.9156755E1,2.9056115E0,5.9672456E0,1.318951E1,1.4818101E0,1.4238014E0,1.8719739E0,4.095272E0,3.968234E0,9.221276E0],"tree_param":{"num_deleted":"0","num_feature":"22","num_nodes":"11","size_leaf_vector":"1"}},{"base_weights":[-3.196253E-4,-7.1811214E-2,3.706199E-1,-1.4727566E-1,3.1998098E-1,5.2424062E-2,6.2804953E-3,1.4798187E-2,-3.708331E-2,6.1905164E-2,-1.9857498E-2],"categories":[],"categories_nodes":[],"categories_segments":[],"categories_sizes":[],"default_left":[0,0,0,0,0,0,0,0,0,0,0],"id":52,"left_children":[1,3,5,7,9,-1,-1,-1,-1,-1,-1],"loss_changes":[6.3422316E-1,6.3985753E-1,1.4982134E-1,1.2096386E0,6.739404E-1,0E0,0E0,0E0,0E0,0E0,0E0],"parents":[2147483647,0,0,1,1,2,2,3,3,4,4],"right_children":[2,4,6,8,10,-1,-1,-1,-1,-1,-1],"split_conditions":[8.864559E-1,5.484898E-1,1E0,-7.131544E-1,4.4776866E-1,5.2424062E-2,6.2804953E-3,1.4798187E-2,-3.708331E-2,6.1905164E-2,-1.9857498E-2],"split_indices":[8,7,13,7,0,0,0,0,0,0,0],"split_type":[0,0,0,0,0,0,0,0,0,0,0],"sum_hessian":[2.1912148E1,1.9047506E1,2.8646402E0,1.6494535E1,2.5529716E0,1.4419202E0,1.42272E0,7.2531676E0,9.241368E0,1.4962367E0,1.0567349E0],"tree_param":{"num_deleted":"0","num_feature":"22","num_nodes":"11","size_leaf_vector":"1"}},{"base_weights":[3.169646E-3,-1.1750223E-1,2.1903008E-1,-3.352227E-1,1.6006044E-1,-6.1727535E-2,4.4963768E-1,-1.3997628E-3,-5.9232354E-2,3.9013494E-2,-3.567572E-2,-5.1966246E-2,2.1407397E-2,7.778641E-2,-6.318298E-3],"categories":[],"categories_nodes":[],"categories_segments":[],"categories_sizes":[],"default_left":[0,0,0,0,0,0,0,0,0,0,0,0,0,0,0],"id":53,"left_children":[1,3,5,7,9,11,13,-1,-1,-1,-1,-1,-1,-1,-1],"loss_changes":[6.2032795E-1,9.777893E-1,5.8029777E-1,7.261729E-1,1.0189925E0,7.083749E-1,8.581448E-1,0E0,0E0,0E0,0E0,0E0,0E0,0E0,0E0],"parents":[2147483647,0,0,1,1,2,2,3,3,4,4,5,5,6,6],"right_children":[2,4,6,8,10,12,14,-1,-1,-1,-1,-1,-1,-1,-1],"split_conditions":[1E0,3.7326673E-1,-3.5471195E-1,3.1083643E-1,1E0,-5.566952E-1,3.8229215E-1,-1.3997628E-3,-5.9232354E-2,3.9013494E-2,-3.567572E-2,-5.1966246E-2,2.1407397E-2,7.778641E-2,-6.318298E-3],"split_indices":[21,0,7,5,11,2,3,0,0,0,0,0,0,0,0],"split_type":[0,0,0,0,0,0,0,0,0,0,0,0,0,0,0],"sum_hessian":[2.1826513E1,1.4292354E1,7.534159E0,7.8931894E0,6.3991637E0,3.7278922E0,3.8062668E0,3.9777644E0,3.9154253E0,4.597563E0,1.801601E0,1.0689089E0,2.6589832E0,2.0057008E0,1.8005661E0],"tree_param":{"num_deleted":"0","num_feature":"22","num_nodes":"15","size_leaf_vector":"1"}},{"base_weights":[2.1607445E-3,-4.5229908E-2,5.6616973E-2,-1.2783206E-1,2.7180833E-1,4.294109E-2,-2.5298325E-2,4.4823267E-2,-4.04153E-2],"categories":[],"categories_nodes":[],"categories_segments":[],"categories_sizes":[],"default_left":[0,0,0,0,0,0,0,0,0],"id":54,"left_children":[1,-1,3,5,7,-1,-1,-1,-1],"loss_changes":[5.840758E-1,0E0,8.6986685E-1,9.46168E-1,1.3773725E0,0E0,0E0,0E0,0E0],"parents":[2147483647,0,0,2,2,3,3,4,4],"right_children":[2,-1,4,6,8,-1,-1,-1,-1],"split_conditions":[-1.3055011E0,-4.5229908E-2,1E0,-7.3687035E-1,7.6152843E-1,4.294109E-2,-2.5298325E-2,4.4823267E-2,-4.04153E-2],"split_indices":[2,0,17,2,3,0,0,0,0],"split_type":[0,0,0,0,0,0,0,0,0],"sum_hessian":[2.1566034E1,1.525914E0,2.0040121E1,1.1009448E1,9.030673E0,1.5732636E0,9.436185E0,7.4286966E0,1.6019763E0],"tree_param":{"num_deleted":"0","num_feature":"22","num_nodes":"9","size_leaf_vector":"1"}},{"base_weights":[9.2067994E-4,-1.1987337E-1,1.9841552E-1,-3.5429373E-1,1.0690492E-1,4.0337887E-1,-3.312036E-1,-7.2686665E-2,3.368059E-2,5.2014094E-2,-5.2022923E-2,6.0121566E-2,-8.499673E-3,-5.6162413E-2,6.08772E-3],"categories":[],"categories_nodes":[],"categories_segments":[],"categories_sizes":[],"default_left":[0,0,0,0,0,0,0,0,0,0,0,0,0,0,0],"id":55,"left_children":[1,3,5,7,9,11,13,-1,-1,-1,-1,-1,-1,-1,-1],"loss_changes":[5.587615E-1,8.1073105E-1,1.0983248E0,2.1451287E0,2.3846693E0,7.1374536E-1,3.0782476E-1,0E0,0E0,0E0,0E0,0E0,0E0,0E0,0E0],"parents":[2147483647,0,0,1,1,2,2,3,3,4,4,5,5,6,6],"right_children":[2,4,6,8,10,12,14,-1,-1,-1,-1,-1,-1,-1,-1],"split_conditions":[-3.5903928E-1,1E0,1.0525752E0,4.3720052E-1,3.991775E-1,1E0,9.361862E-1,-7.2686665E-2,3.368059E-2,5.2014094E-2,-5.2022923E-2,6.0121566E-2,-8.499673E-3,-5.6162413E-2,6.08772E-3],"split_indices":[8,13,0,3,5,11,8,0,0,0,0,0,0,0,0],"split_type":[0,0,0,0,0,0,0,0,0,0,0,0,0,0,0],"sum_hessian":[2.1425058E1,1.353789E1,7.8871684E0,6.380296E0,7.1575937E0,5.858342E0,2.0288262E0,4.1118417E0,2.2684546E0,4.417432E0,2.7401617E0,4.004928E0,1.8534139E0,1.0054926E0,1.0233335E0],"tree_param":{"num_deleted":"0","num_feature":"22","num_nodes":"15","size_leaf_vector":"1"}},{"base_weights":[-1.033562E-3,-1.1988028E-1,2.1390209E-1,-3.2594743E-1,1.4022894E-1,3.569248E-1,-1.960427E-2,-4.2090425E-3,-6.0574736E-2,3.6387872E-2,-3.619295E-2,8.431908E-3,6.613306E-2],"categories":[],"categories_nodes":[],"categories_segments":[],"categories_sizes":[],"default_left":[0,0,0,0,0,0,0,0,0,0,0,0,0],"id":56,"left_children":[1,3,5,7,9,11,-1,-1,-1,-1,-1,-1,-1],"loss_changes":[5.926522E-1,8.461899E-1,5.5442286E-1,6.6021496E-1,9.516276E-1,4.8197156E-1,0E0,0E0,0E0,0E0,0E0,0E0,0E0],"parents":[2147483647,0,0,1,1,2,2,3,3,4,4,5,5],"right_children":[2,4,6,8,10,12,-1,-1,-1,-1,-1,-1,-1],"split_conditions":[1E0,3.7326673E-1,1.0525752E0,-1.1071506E-1,1.1207227E0,-3.5903928E-1,-1.960427E-2,-4.2090425E-3,-6.0574736E-2,3.6387872E-2,-3.619295E-2,8.431908E-3,6.613306E-2],"split_indices":[21,0,0,3,0,8,0,0,0,0,0,0,0],"split_type":[0,0,0,0,0,0,0,0,0,0,0,0,0],"sum_hessian":[2.1197027E1,1.3934385E1,7.262642E0,7.633642E0,6.3007426E0,5.4800725E0,1.7825692E0,4.360423E0,3.2732193E0,4.5497565E0,1.750986E0,3.5647306E0,1.9153419E0],"tree_param":{"num_deleted":"0","num_feature":"22","num_nodes":"13","size_leaf_vector":"1"}},{"base_weights":[-1.4005841E-3,-2.2580825E-1,1.0977762E-1,-4.0681836E-1,3.18299E-2,-1.565123E-2,4.4475943E-1,-6.539024E-2,1.3005428E-2,3.0733336E-2,-2.0059174E-2,-2.229507E-4,7.136842E-2],"categories":[],"categories_nodes":[],"categories_segments":[],"categories_sizes":[],"default_left":[0,0,0,0,0,0,0,0,0,0,0,0,0],"id":57,"left_children":[1,3,5,7,-1,9,11,-1,-1,-1,-1,-1,-1],"loss_changes":[5.742512E-1,8.803024E-1,6.5400875E-1,9.0208805E-1,0E0,7.886301E-1,5.0998706E-1,0E0,0E0,0E0,0E0,0E0,0E0],"parents":[2147483647,0,0,1,1,2,2,3,3,5,5,6,6],"right_children":[2,4,6,8,-1,10,12,-1,-1,-1,-1,-1,-1],"split_conditions":[1E0,1E0,4.3720052E-1,4.8751858E-1,3.18299E-2,-3.9534855E-1,-1.1137645E-1,-6.539024E-2,1.3005428E-2,3.0733336E-2,-2.0059174E-2,-2.229507E-4,7.136842E-2],"split_indices":[1,6,3,5,0,0,2,0,0,0,0,0,0],"split_type":[0,0,0,0,0,0,0,0,0,0,0,0,0],"sum_hessian":[2.1023212E1,6.6233215E0,1.4399892E1,5.1592836E0,1.4640377E0,1.1170533E1,3.2293591E0,3.3839226E0,1.7753612E0,3.8263342E0,7.3441987E0,1.5855957E0,1.6437633E0],"tree_param":{"num_deleted":"0","num_feature":"22","num_nodes":"13","size_leaf_vector":"1"}},{"base_weights":[1.4204023E-3,-6.413578E-2,3.4252554E-1,-2.9661688E-1,6.448901E-2,4.9355876E-2,4.3028207E-3,-6.261349E-2,4.5531257E-3,7.603539E-2,-1.30136525E-2],"categories":[],"categories_nodes":[],"categories_segments":[],"categories_sizes":[],"default_left":[0,0,0,0,0,0,0,0,0,0,0],"id":58,"left_children":[1,3,5,7,9,-1,-1,-1,-1,-1,-1],"loss_changes":[5.1154447E-1,5.934592E-1,1.4554551E-1,8.199607E-1,1.8848594E0,0E0,0E0,0E0,0E0,0E0,0E0],"parents":[2147483647,0,0,1,1,2,2,3,3,4,4],"right_children":[2,4,6,8,10,-1,-1,-1,-1,-1,-1],"split_conditions":[8.864559E-1,-3.951423E-1,1E0,1E0,-2.0552415E-1,4.9355876E-2,4.3028207E-3,-6.261349E-2,4.5531257E-3,7.603539E-2,-1.30136525E-2],"split_indices":[8,3,13,12,3,0,0,0,0,0,0],"split_type":[0,0,0,0,0,0,0,0,0,0,0],"sum_hessian":[2.0893665E1,1.8206566E1,2.6871002E0,6.0199065E0,1.2186659E1,1.3555527E0,1.3315475E0,2.6437438E0,3.376163E0,2.028216E0,1.0158443E1],"tree_param":{"num_deleted":"0","num_feature":"22","num_nodes":"11","size_leaf_vector":"1"}},{"base_weights":[3.9475663E-3,-4.265801E-2,5.5121902E-2,-1.0495821E-1,2.404163E-1,-2.6104227E-2,3.2007914E-2,4.094548E-2,-3.9769225E-2],"categories":[],"categories_nodes":[],"categories_segments":[],"categories_sizes":[],"default_left":[0,0,0,0,0,0,0,0,0],"id":59,"left_children":[1,-1,3,5,7,-1,-1,-1,-1],"loss_changes":[5.018197E-1,0E0,6.2704027E-1,8.51864E-1,1.2099591E0,0E0,0E0,0E0,0E0],"parents":[2147483647,0,0,2,2,3,3,4,4],"right_children":[2,-1,4,6,8,-1,-1,-1,-1],"split_conditions":[-1.3055011E0,-4.265801E-2,1E0,5.923616E-1,7.6152843E-1,-2.6104227E-2,3.2007914E-2,4.094548E-2,-3.9769225E-2],"split_indices":[2,0,17,3,3,0,0,0,0],"split_type":[0,0,0,0,0,0,0,0,0],"sum_hessian":[2.0709631E1,1.420787E0,1.9288843E1,1.0581124E1,8.707719E0,8.021333E0,2.559792E0,7.167372E0,1.5403463E0],"tree_param":{"num_deleted":"0","num_feature":"22","num_nodes":"9","size_leaf_vector":"1"}},{"base_weights":[1.9182827E-3,-2.1821567E-1,1.09516144E-1,-6.5676704E-2,2.557224E-2,-1.0100869E-2,4.2641747E-1,3.323831E-2,-5.676637E-2,2.8384864E-2,-1.7969707E-2,1.04198014E-4,6.81951E-2],"categories":[],"categories_nodes":[],"categories_segments":[],"categories_sizes":[],"default_left":[0,0,0,0,0,0,0,0,0,0,0,0,0],"id":60,"left_children":[1,3,5,-1,7,9,11,-1,-1,-1,-1,-1,-1],"loss_changes":[5.35017E-1,8.0996275E-1,5.789823E-1,0E0,1.2317334E0,6.4838177E-1,4.533652E-1,0E0,0E0,0E0,0E0,0E0,0E0],"parents":[2147483647,0,0,1,1,2,2,4,4,5,5,6,6],"right_children":[2,4,6,-1,8,10,12,-1,-1,-1,-1,-1,-1],"split_conditions":[1E0,5.8915656E-2,4.3720052E-1,-6.5676704E-2,1.0525752E0,-3.9534855E-1,-1.1137645E-1,3.323831E-2,-5.676637E-2,2.8384864E-2,-1.7969707E-2,1.04198014E-4,6.81951E-2],"split_indices":[1,0,3,0,0,0,2,0,0,0,0,0,0],"split_type":[0,0,0,0,0,0,0,0,0,0,0,0,0],"sum_hessian":[2.0578995E1,6.4187784E0,1.4160215E1,1.6880773E0,4.730701E0,1.0982796E1,3.1774201E0,3.4079056E0,1.3227953E0,3.7717702E0,7.211025E0,1.5692445E0,1.6081758E0],"tree_param":{"num_deleted":"0","num_feature":"22","num_nodes":"13","size_leaf_vector":"1"}},{"base_weights":[1.1168944E-3,-2.1256079E-1,1.0397276E-1,-3.841544E-1,2.8907372E-2,1.979447E-1,-2.6561847E-1,5.5859443E-3,-6.6814505E-2,-1.6504528E-2,4.1374184E-2,6.195461E-3,-4.29479E-2],"categories":[],"categories_nodes":[],"categories_segments":[],"categories_sizes":[],"default_left":[0,0,0,0,0,0,0,0,0,0,0,0,0],"id":61,"left_children":[1,3,5,7,-1,9,11,-1,-1,-1,-1,-1,-1],"loss_changes":[4.9303067E-1,7.386532E-1,5.782751E-1,7.6985765E-1,0E0,1.0584683E0,2.1422611E-1,0E0,0E0,0E0,0E0,0E0,0E0],"parents":[2147483647,0,0,1,1,2,2,3,3,5,5,6,6],"right_children":[2,4,6,8,-1,10,12,-1,-1,-1,-1,-1,-1],"split_conditions":[1E0,1E0,8.4088284E-1,-8.3876234E-1,2.8907372E-2,-3.951423E-1,-1.6760051E-1,5.5859443E-3,-6.6814505E-2,-1.6504528E-2,4.1374184E-2,6.195461E-3,-4.29479E-2],"split_indices":[1,6,5,7,0,3,3,0,0,0,0,0,0],"split_type":[0,0,0,0,0,0,0,0,0,0,0,0,0],"sum_hessian":[2.042734E1,6.291171E0,1.4136168E1,4.8621683E0,1.4290026E0,1.1640809E1,2.495359E0,2.222281E0,2.6398873E0,4.427889E0,7.21292E0,1.0394013E0,1.4559577E0],"tree_param":{"num_deleted":"0","num_feature":"22","num_nodes":"13","size_leaf_vector":"1"}},{"base_weights":[-1.1882093E-3,-6.795818E-2,3.4598243E-1,1.4458013E-1,-2.0203938E-1,4.7228817E-2,6.474194E-3,-1.0006875E-2,5.7891246E-2,-6.538787E-2,3.090819E-3],"categories":[],"categories_nodes":[],"categories_segments":[],"categories_sizes":[],"default_left":[0,0,0,0,0,0,0,0,0,0,0],"id":62,"left_children":[1,3,5,7,9,-1,-1,-1,-1,-1,-1],"loss_changes":[5.158172E-1,5.606278E-1,9.694472E-2,8.8636494E-1,1.2676432E0,0E0,0E0,0E0,0E0,0E0,0E0],"parents":[2147483647,0,0,1,1,2,2,3,3,4,4],"right_children":[2,4,6,8,10,-1,-1,-1,-1,-1,-1],"split_conditions":[8.864559E-1,-7.131544E-1,1E0,4.4776866E-1,-3.5471195E-1,4.7228817E-2,6.474194E-3,-1.0006875E-2,5.7891246E-2,-6.538787E-2,3.090819E-3],"split_indices":[8,7,13,0,7,0,0,0,0,0,0],"split_type":[0,0,0,0,0,0,0,0,0,0,0],"sum_hessian":[2.023782E1,1.7647917E1,2.5899034E0,6.796371E0,1.0851545E1,1.3184716E0,1.2714319E0,4.839821E0,1.9565504E0,3.076738E0,7.774807E0],"tree_param":{"num_deleted":"0","num_feature":"22","num_nodes":"11","size_leaf_vector":"1"}},{"base_weights":[7.2800025E-4,-1.1116465E-1,2.0235683E-1,-2.9965848E-1,1.2632209E-1,-1.5869905E-1,3.6313188E-1,1.6607421E-4,-5.5497218E-2,3.341945E-2,-3.4394763E-2,-4.739585E-2,2.1436172E-2,-1.8486476E-2,5.1818162E-2],"categories":[],"categories_nodes":[],"categories_segments":[],"categories_sizes":[],"default_left":[0,0,0,0,0,0,0,0,0,0,0,0,0,0,0],"id":63,"left_children":[1,3,5,7,9,11,13,-1,-1,-1,-1,-1,-1,-1,-1],"loss_changes":[4.997756E-1,6.7578006E-1,5.1648617E-1,6.34937E-1,8.001447E-1,4.698735E-1,5.8633953E-1,0E0,0E0,0E0,0E0,0E0,0E0,0E0,0E0],"parents":[2147483647,0,0,1,1,2,2,3,3,4,4,5,5,6,6],"right_children":[2,4,6,8,10,12,14,-1,-1,-1,-1,-1,-1,-1,-1],"split_conditions":[1E0,3.7326673E-1,-5.566952E-1,3.1083643E-1,1E0,-3.5471195E-1,-1.1467911E0,1.6607421E-4,-5.5497218E-2,3.341945E-2,-3.4394763E-2,-4.739585E-2,2.1436172E-2,-1.8486476E-2,5.1818162E-2],"split_indices":[21,0,2,5,11,7,5,0,0,0,0,0,0,0,0],"split_type":[0,0,0,0,0,0,0,0,0,0,0,0,0,0,0],"sum_hessian":[2.0155321E1,1.3250633E1,6.904689E0,7.2413583E0,6.009275E0,2.1312988E0,4.77339E0,3.7771225E0,3.4642358E0,4.3678975E0,1.6413773E0,1.0085514E0,1.1227475E0,1.0103142E0,3.7630756E0],"tree_param":{"num_deleted":"0","num_feature":"22","num_nodes":"15","size_leaf_vector":"1"}},{"base_weights":[-1.7434607E-3,-1.15316674E-1,1.8403302E-1,-3.359317E-1,9.620437E-2,3.7320632E-1,-2.9720122E-2,-6.735643E-2,2.8595207E-2,4.7375914E-2,-4.9150195E-2,5.5074234E-2,-6.855765E-3],"categories":[],"categories_nodes":[],"categories_segments":[],"categories_sizes":[],"default_left":[0,0,0,0,0,0,0,0,0,0,0,0,0],"id":64,"left_children":[1,3,5,7,9,11,-1,-1,-1,-1,-1,-1,-1],"loss_changes":[4.636133E-1,6.682187E-1,8.7017816E-1,1.6398646E0,1.9490194E0,5.4206246E-1,0E0,0E0,0E0,0E0,0E0,0E0,0E0],"parents":[2147483647,0,0,1,1,2,2,3,3,4,4,5,5],"right_children":[2,4,6,8,10,12,-1,-1,-1,-1,-1,-1,-1],"split_conditions":[-3.5903928E-1,1E0,1.0525752E0,4.3720052E-1,3.991775E-1,1E0,-2.9720122E-2,-6.735643E-2,2.8595207E-2,4.7375914E-2,-4.9150195E-2,5.5074234E-2,-6.855765E-3],"split_indices":[8,13,0,3,5,11,0,0,0,0,0,0,0],"split_type":[0,0,0,0,0,0,0,0,0,0,0,0,0],"sum_hessian":[1.9967175E1,1.2627008E1,7.3401656E0,5.892744E0,6.7342644E0,5.4300804E0,1.910085E0,3.7653563E0,2.1273875E0,4.2182546E0,2.5160096E0,3.6974578E0,1.7326227E0],"tree_param":{"num_deleted":"0","num_feature":"22","num_nodes":"13","size_leaf_vector":"1"}},{"base_weights":[-2.7814717E-3,-1.1252282E-1,1.951911E-1,1.3020101E-1,-2.7122238E-1,3.6800924E-1,-1.09124705E-1,4.6947233E-2,-1.7824123E-2,-4.4061847E-2,1.8837826E-2,6.393239E-3,6.866718E-2,2.4889048E-2,-4.001099E-2],"categories":[],"categories_nodes":[],"categories_segments":[],"categories_sizes":[],"default_left":[0,0,0,0,0,0,0,0,0,0,0,0,0,0,0],"id":65,"left_children":[1,3,5,7,9,11,13,-1,-1,-1,-1,-1,-1,-1,-1],"loss_changes":[4.7326288E-1,5.745441E-1,4.4899684E-1,7.335192E-1,7.67247E-1,4.586972E-1,4.73266E-1,0E0,0E0,0E0,0E0,0E0,0E0,0E0,0E0],"parents":[2147483647,0,0,1,1,2,2,3,3,4,4,5,5,6,6],"right_children":[2,4,6,8,10,12,14,-1,-1,-1,-1,-1,-1,-1,-1],"split_conditions":[1E0,-8.3876234E-1,2.3059762E-1,3.991775E-1,5.484898E-1,-3.5471195E-1,4.956815E-1,4.6947233E-2,-1.7824123E-2,-4.4061847E-2,1.8837826E-2,6.393239E-3,6.866718E-2,2.4889048E-2,-4.001099E-2],"split_indices":[21,7,3,5,7,7,0,0,0,0,0,0,0,0,0],"split_type":[0,0,0,0,0,0,0,0,0,0,0,0,0,0,0],"sum_hessian":[1.9772532E1,1.2998661E1,6.7738714E0,5.2099113E0,7.788749E0,4.18688E0,2.5869913E0,2.232355E0,2.9775562E0,5.721328E0,2.0674217E0,2.7568464E0,1.4300339E0,1.2247618E0,1.3622295E0],"tree_param":{"num_deleted":"0","num_feature":"22","num_nodes":"15","size_leaf_vector":"1"}},{"base_weights":[5.980572E-4,5.857282E-2,-3.5357183E-1,-5.644891E-2,5.688954E-2,-5.7980508E-2,4.634978E-3,-1.3704071E-2,4.251196E-2],"categories":[],"categories_nodes":[],"categories_segments":[],"categories_sizes":[],"default_left":[0,0,0,0,0,0,0,0,0],"id":66,"left_children":[1,3,5,7,-1,-1,-1,-1,-1],"loss_changes":[4.4411027E-1,1.1225991E0,3.021667E-1,6.819619E-1,0E0,0E0,0E0,0E0,0E0],"parents":[2147483647,0,0,1,1,2,2,3,3],"right_children":[2,4,6,8,-1,-1,-1,-1,-1],"split_conditions":[1E0,5.484898E-1,1E0,1.1964744E0,5.688954E-2,-5.7980508E-2,4.634978E-3,-1.3704071E-2,4.251196E-2],"split_indices":[9,7,16,2,0,0,0,0,0],"split_type":[0,0,0,0,0,0,0,0,0],"sum_hessian":[1.9620577E1,1.7577845E1,2.0427322E0,1.5070488E1,2.5073555E0,1.0173991E0,1.0253333E0,1.3522834E1,1.5476544E0],"tree_param":{"num_deleted":"0","num_feature":"22","num_nodes":"9","size_leaf_vector":"1"}},{"base_weights":[2.1693176E-3,5.770547E-2,-3.3820406E-2,-4.9116243E-2,5.377443E-1,9.053786E-3,-3.178768E-2,2.045955E-2,6.725066E-2],"categories":[],"categories_nodes":[],"categories_segments":[],"categories_sizes":[],"default_left":[0,0,0,0,0,0,0,0,0],"id":67,"left_children":[1,3,-1,5,7,-1,-1,-1,-1],"loss_changes":[4.0717247E-1,9.74305E-1,0E0,6.3069594E-1,1.722753E-2,0E0,0E0,0E0,0E0],"parents":[2147483647,0,0,1,1,3,3,4,4],"right_children":[2,4,-1,6,8,-1,-1,-1,-1],"split_conditions":[1E0,5.484898E-1,-3.3820406E-2,1E0,5.90273E-2,9.053786E-3,-3.178768E-2,2.045955E-2,6.725066E-2],"split_indices":[9,7,0,11,2,0,0,0,0],"split_type":[0,0,0,0,0,0,0,0,0],"sum_hessian":[1.950763E1,1.748517E1,2.022459E0,1.5036763E1,2.4484067E0,1.033144E1,4.7053237E0,1.4304231E0,1.0179837E0],"tree_param":{"num_deleted":"0","num_feature":"22","num_nodes":"9","size_leaf_vector":"1"}},{"base_weights":[3.5081487E-3,-1.9640428E-1,9.787871E-2,-5.8968592E-2,3.5581276E-2,1.7064421E-1,-2.658233E-2,3.1164074E-2,-2.5748087E-2,-1.19981365E-2,4.7724865E-2],"categories":[],"categories_nodes":[],"categories_segments":[],"categories_sizes":[],"default_left":[0,0,0,0,0,0,0,0,0,0,0],"id":68,"left_children":[1,3,5,-1,7,9,-1,-1,-1,-1,-1],"loss_changes":[4.0374482E-1,6.4764726E-1,4.2945272E-1,0E0,5.0605994E-1,1.1891598E0,0E0,0E0,0E0,0E0,0E0],"parents":[2147483647,0,0,1,1,2,2,4,4,5,5],"right_children":[2,4,6,-1,8,10,-1,-1,-1,-1,-1],"split_conditions":[1E0,-5.566952E-1,1E0,-5.8968592E-2,-6.239179E-1,-3.5471195E-1,-2.658233E-2,3.1164074E-2,-2.5748087E-2,-1.19981365E-2,4.7724865E-2],"split_indices":[1,2,9,0,7,7,0,0,0,0,0],"split_type":[0,0,0,0,0,0,0,0,0,0,0],"sum_hessian":[1.9381859E1,5.868647E0,1.351321E1,1.6052994E0,4.263348E0,1.1702681E1,1.8105305E0,2.162714E0,2.1006339E0,6.3203735E0,5.3823066E0],"tree_param":{"num_deleted":"0","num_feature":"22","num_nodes":"11","size_leaf_vector":"1"}},{"base_weights":[9.563972E-4,-5.9796333E-2,3.161828E-1,1.5642238E-1,-1.9866823E-1,4.3897014E-2,4.957394E-3,-6.1663063E-3,5.223759E-2,-5.867463E-2,7.773098E-4],"categories":[],"categories_nodes":[],"categories_segments":[],"categories_sizes":[],"default_left":[0,0,0,0,0,0,0,0,0,0,0],"id":69,"left_children":[1,3,5,7,9,-1,-1,-1,-1,-1,-1],"loss_changes":[4.0603876E-1,5.652332E-1,9.0375304E-2,6.3211393E-1,9.0767574E-1,0E0,0E0,0E0,0E0,0E0,0E0],"parents":[2147483647,0,0,1,1,2,2,3,3,4,4],"right_children":[2,4,6,8,10,-1,-1,-1,-1,-1,-1],"split_conditions":[8.864559E-1,-7.131544E-1,1E0,4.4776866E-1,-3.5471195E-1,4.3897014E-2,4.957394E-3,-6.1663063E-3,5.223759E-2,-5.867463E-2,7.773098E-4],"split_indices":[8,7,13,0,7,0,0,0,0,0,0],"split_type":[0,0,0,0,0,0,0,0,0,0,0],"sum_hessian":[1.9214869E1,1.67894E1,2.4254687E0,6.516718E0,1.0272681E1,1.2180145E0,1.2074542E0,4.6043267E0,1.9123911E0,2.9274085E0,7.345273E0],"tree_param":{"num_deleted":"0","num_feature":"22","num_nodes":"11","size_leaf_vector":"1"}},{"base_weights":[2.6630075E-3,-1.0373138E-1,1.9547732E-1,-2.7258512E-1,1.07772134E-1,-1.5130823E-2,3.5013968E-1,-1.0008877E-3,-5.4339033E-2,-1.4315012E-2,5.1855285E-2,-1.6371373E-2,5.009659E-2],"categories":[],"categories_nodes":[],"categories_segments":[],"categories_sizes":[],"default_left":[0,0,0,0,0,0,0,0,0,0,0,0,0],"id":70,"left_children":[1,3,5,7,9,-1,11,-1,-1,-1,-1,-1,-1],"loss_changes":[4.3355477E-1,5.1634526E-1,4.5578825E-1,5.538601E-1,7.720361E-1,0E0,5.079371E-1,0E0,0E0,0E0,0E0,0E0,0E0],"parents":[2147483647,0,0,1,1,2,2,3,3,4,4,6,6],"right_children":[2,4,6,8,10,-1,12,-1,-1,-1,-1,-1,-1],"split_conditions":[1E0,3.7326673E-1,-5.566952E-1,-1.1071506E-1,3.3867896E-1,-1.5130823E-2,-1.1457512E0,-1.0008877E-3,-5.4339033E-2,-1.4315012E-2,5.1855285E-2,-1.6371373E-2,5.009659E-2],"split_indices":[21,0,2,3,5,0,5,0,0,0,0,0,0],"split_type":[0,0,0,0,0,0,0,0,0,0,0,0,0],"sum_hessian":[1.9145775E1,1.2635537E1,6.510239E0,6.8655944E0,5.7699423E0,2.0146523E0,4.495587E0,4.012237E0,2.8533576E0,3.9863982E0,1.783544E0,1.0007299E0,3.4948568E0],"tree_param":{"num_deleted":"0","num_feature":"22","num_nodes":"13","size_leaf_vector":"1"}},{"base_weights":[2.45293E-3,-1.0592327E-1,1.7742656E-1,-3.2630906E-1,1.00662865E-1,3.6708435E-1,-2.9601598E-2,-6.519261E-2,2.6577959E-2,4.4807274E-2,-4.5946784E-2,5.1589E-2,-2.2530376E-3],"categories":[],"categories_nodes":[],"categories_segments":[],"categories_sizes":[],"default_left":[0,0,0,0,0,0,0,0,0,0,0,0,0],"id":71,"left_children":[1,3,5,7,9,11,-1,-1,-1,-1,-1,-1,-1],"loss_changes":[3.98377E-1,6.241314E-1,8.296927E-1,1.4301765E0,1.6590419E0,3.6990273E-1,0E0,0E0,0E0,0E0,0E0,0E0,0E0],"parents":[2147483647,0,0,1,1,2,2,3,3,4,4,5,5],"right_children":[2,4,6,8,10,12,-1,-1,-1,-1,-1,-1,-1],"split_conditions":[-3.5903928E-1,1E0,1.0525752E0,4.3720052E-1,3.991775E-1,1E0,-2.9601598E-2,-6.519261E-2,2.6577959E-2,4.4807274E-2,-4.5946784E-2,5.1589E-2,-2.2530376E-3],"split_indices":[8,13,0,3,5,11,0,0,0,0,0,0,0],"split_type":[0,0,0,0,0,0,0,0,0,0,0,0,0],"sum_hessian":[1.9017076E1,1.1987081E1,7.029996E0,5.51943E0,6.4676504E0,5.1796947E0,1.8503013E0,3.4958425E0,2.023588E0,4.115284E0,2.3523662E0,3.5136302E0,1.6660645E0],"tree_param":{"num_deleted":"0","num_feature":"22","num_nodes":"13","size_leaf_vector":"1"}},{"base_weights":[1.092578E-3,-1.0330426E-1,1.9017099E-1,1.2788197E-1,-2.5568998E-1,3.6102438E-1,-1.0760102E-1,4.3868877E-2,-1.66803E-2,-5.7850458E-2,-3.7428979E-3,-1.0977838E-2,5.3376492E-2,2.2518395E-2,-3.6767717E-2],"categories":[],"categories_nodes":[],"categories_segments":[],"categories_sizes":[],"default_left":[0,0,0,0,0,0,0,0,0,0,0,0,0,0,0],"id":72,"left_children":[1,3,5,7,9,11,13,-1,-1,-1,-1,-1,-1,-1,-1],"loss_changes":[4.112545E-1,5.058248E-1,4.157981E-1,6.229005E-1,5.721537E-1,4.6015513E-1,3.8326943E-1,0E0,0E0,0E0,0E0,0E0,0E0,0E0,0E0],"parents":[2147483647,0,0,1,1,2,2,3,3,4,4,5,5,6,6],"right_children":[2,4,6,8,10,12,14,-1,-1,-1,-1,-1,-1,-1,-1],"split_conditions":[1E0,-8.3876234E-1,2.3059762E-1,3.991775E-1,1E0,-7.174932E-1,4.956815E-1,4.3868877E-2,-1.66803E-2,-5.7850458E-2,-3.7428979E-3,-1.0977838E-2,5.3376492E-2,2.2518395E-2,-3.6767717E-2],"split_indices":[21,7,3,5,1,3,0,0,0,0,0,0,0,0,0],"split_type":[0,0,0,0,0,0,0,0,0,0,0,0,0,0,0],"sum_hessian":[1.8839169E1,1.24298525E1,6.409315E0,5.002023E0,7.4278293E0,3.937606E0,2.471709E0,2.1965902E0,2.805433E0,2.3304727E0,5.0973563E0,1.154773E0,2.7828333E0,1.1431426E0,1.3285666E0],"tree_param":{"num_deleted":"0","num_feature":"22","num_nodes":"15","size_leaf_vector":"1"}},{"base_weights":[6.209319E-4,-5.727227E-2,3.0270508E-1,-2.745176E-1,6.247868E-2,4.140747E-2,4.880467E-3,-5.6284107E-2,1.9072191E-3,6.837019E-2,-1.1713528E-2],"categories":[],"categories_nodes":[],"categories_segments":[],"categories_sizes":[],"default_left":[0,0,0,0,0,0,0,0,0,0,0],"id":73,"left_children":[1,3,5,7,9,-1,-1,-1,-1,-1,-1],"loss_changes":[3.6201465E-1,4.6929702E-1,7.391742E-2,5.49214E-1,1.4211287E0,0E0,0E0,0E0,0E0,0E0,0E0],"parents":[2147483647,0,0,1,1,2,2,3,3,4,4],"right_children":[2,4,6,8,10,-1,-1,-1,-1,-1,-1],"split_conditions":[8.864559E-1,-3.951423E-1,1E0,1E0,-2.0552415E-1,4.140747E-2,4.880467E-3,-5.6284107E-2,1.9072191E-3,6.837019E-2,-1.1713528E-2],"split_indices":[8,3,13,12,3,0,0,0,0,0,0],"split_type":[0,0,0,0,0,0,0,0,0,0,0],"sum_hessian":[1.8708708E1,1.6379963E1,2.328744E0,5.361334E0,1.1018629E1,1.1802084E0,1.1485355E0,2.2422268E0,3.119107E0,1.8418369E0,9.176792E0],"tree_param":{"num_deleted":"0","num_feature":"22","num_nodes":"11","size_leaf_vector":"1"}},{"base_weights":[3.0295087E-3,-3.7445486E-2,4.9023546E-2,1.1081934E-1,-3.1088227E-2,-9.7419973E-4,6.3209295E-2],"categories":[],"categories_nodes":[],"categories_segments":[],"categories_sizes":[],"default_left":[0,0,0,0,0,0,0],"id":74,"left_children":[1,-1,3,5,-1,-1,-1],"loss_changes":[3.579953E-1,0E0,4.4193894E-1,1.0351939E0,0E0,0E0,0E0],"parents":[2147483647,0,0,2,2,3,3],"right_children":[2,-1,4,6,-1,-1,-1],"split_conditions":[-1.3055011E0,-3.7445486E-2,1E0,5.484898E-1,-3.1088227E-2,-9.7419973E-4,6.3209295E-2],"split_indices":[2,0,9,7,0,0,0],"split_type":[0,0,0,0,0,0,0],"sum_hessian":[1.8562124E1,1.2404085E0,1.7321716E1,1.5374077E1,1.9476396E0,1.32832155E1,2.0908608E0],"tree_param":{"num_deleted":"0","num_feature":"22","num_nodes":"7","size_leaf_vector":"1"}},{"base_weights":[2.495674E-3,-9.489306E-2,1.7901498E-1,1.2901162E-1,-2.4457218E-1,-1.5216567E-2,3.2908514E-1,4.6604246E-2,-1.1841917E-2,-5.5097867E-2,-4.0341415E-3,-1.2880345E-2,4.70543E-2],"categories":[],"categories_nodes":[],"categories_segments":[],"categories_sizes":[],"default_left":[0,0,0,0,0,0,0,0,0,0,0,0,0],"id":75,"left_children":[1,3,5,7,9,-1,11,-1,-1,-1,-1,-1,-1],"loss_changes":[3.5162106E-1,4.7387326E-1,4.112728E-1,5.5075234E-1,4.943851E-1,0E0,4.0502834E-1,0E0,0E0,0E0,0E0,0E0,0E0],"parents":[2147483647,0,0,1,1,2,2,3,3,4,4,6,6],"right_children":[2,4,6,8,10,-1,12,-1,-1,-1,-1,-1,-1],"split_conditions":[1E0,-8.3876234E-1,-5.566952E-1,1.7832483E-1,1E0,-1.5216567E-2,-1.0584501E0,4.6604246E-2,-1.1841917E-2,-5.5097867E-2,-4.0341415E-3,-1.2880345E-2,4.70543E-2],"split_indices":[21,7,2,5,1,0,5,0,0,0,0,0,0],"split_type":[0,0,0,0,0,0,0,0,0,0,0,0,0],"sum_hessian":[1.8465645E1,1.2198142E1,6.2675033E0,4.9425983E0,7.2555437E0,1.9500637E0,4.3174396E0,1.7184008E0,3.2241974E0,2.2228253E0,5.0327187E0,1.0401161E0,3.2773235E0],"tree_param":{"num_deleted":"0","num_feature":"22","num_nodes":"13","size_leaf_vector":"1"}},{"base_weights":[1.927165E-3,-9.7516306E-2,1.6319788E-1,-3.0069584E-1,9.215797E-2,5.032409E-2,-1.0352213E-1,-6.2352467E-2,2.6873676E-2,4.115458E-2,-4.373141E-2,1.8403314E-2,-3.979088E-2],"categories":[],"categories_nodes":[],"categories_segments":[],"categories_sizes":[],"default_left":[0,0,0,0,0,0,0,0,0,0,0,0,0],"id":76,"left_children":[1,3,5,7,9,-1,11,-1,-1,-1,-1,-1,-1],"loss_changes":[3.262439E-1,5.1312107E-1,7.554302E-1,1.328611E0,1.4110277E0,0E0,5.113349E-1,0E0,0E0,0E0,0E0,0E0,0E0],"parents":[2147483647,0,0,1,1,2,2,3,3,4,4,6,6],"right_children":[2,4,6,8,10,-1,12,-1,-1,-1,-1,-1,-1],"split_conditions":[-3.5903928E-1,1E0,-2.0552415E-1,4.3720052E-1,3.991775E-1,5.032409E-2,1E0,-6.2352467E-2,2.6873676E-2,4.115458E-2,-4.373141E-2,1.8403314E-2,-3.979088E-2],"split_indices":[8,13,3,3,5,0,13,0,0,0,0,0,0],"split_type":[0,0,0,0,0,0,0,0,0,0,0,0,0],"sum_hessian":[1.8350454E1,1.1595631E1,6.7548246E0,5.3158994E0,6.2797313E0,2.5794685E0,4.175356E0,3.3319318E0,1.9839674E0,4.055874E0,2.2238576E0,2.301815E0,1.8735411E0],"tree_param":{"num_deleted":"0","num_feature":"22","num_nodes":"13","size_leaf_vector":"1"}},{"base_weights":[1.149559E-3,-9.607219E-2,1.767016E-1,-2.6116997E-1,1.0912494E-1,3.0304286E-1,-1.63616E-2,1.2090064E-2,-4.1372813E-2,-1.3482729E-2,5.015194E-2,4.7166582E-2,-8.944945E-3],"categories":[],"categories_nodes":[],"categories_segments":[],"categories_sizes":[],"default_left":[0,0,0,0,0,0,0,0,0,0,0,0,0],"id":77,"left_children":[1,3,5,7,9,11,-1,-1,-1,-1,-1,-1,-1],"loss_changes":[3.4447417E-1,4.6881077E-1,3.5878193E-1,4.8700374E-1,6.8984616E-1,4.1248447E-1,0E0,0E0,0E0,0E0,0E0,0E0,0E0],"parents":[2147483647,0,0,1,1,2,2,3,3,4,4,5,5],"right_children":[2,4,6,8,10,12,-1,-1,-1,-1,-1,-1,-1],"split_conditions":[1E0,3.7326673E-1,1.0525752E0,-6.9248194E-1,3.3867896E-1,6.278436E-1,-1.63616E-2,1.2090064E-2,-4.1372813E-2,-1.3482729E-2,5.015194E-2,4.7166582E-2,-8.944945E-3],"split_indices":[21,0,0,2,5,2,0,0,0,0,0,0,0],"split_type":[0,0,0,0,0,0,0,0,0,0,0,0,0],"sum_hessian":[1.8188429E1,1.1997104E1,6.191324E0,6.4969797E0,5.5001245E0,4.594987E0,1.5963373E0,1.9131492E0,4.5838304E0,3.7963352E0,1.7037891E0,3.0730288E0,1.5219579E0],"tree_param":{"num_deleted":"0","num_feature":"22","num_nodes":"13","size_leaf_vector":"1"}},{"base_weights":[2.5952698E-3,-3.5474062E-2,4.650262E-2,1.0540703E-1,-2.952456E-2,-1.0186937E-3,6.0999967E-2],"categories":[],"categories_nodes":[],"categories_segments":[],"categories_sizes":[],"default_left":[0,0,0,0,0,0,0],"id":78,"left_children":[1,-1,3,5,-1,-1,-1],"loss_changes":[3.1521648E-1,0E0,3.902477E-1,9.367775E-1,0E0,0E0,0E0],"parents":[2147483647,0,0,2,2,3,3],"right_children":[2,-1,4,6,-1,-1,-1],"split_conditions":[-1.3055011E0,-3.5474062E-2,1E0,5.484898E-1,-2.952456E-2,-1.0186937E-3,6.0999967E-2],"split_indices":[2,0,9,7,0,0,0],"split_type":[0,0,0,0,0,0,0],"sum_hessian":[1.8039284E1,1.199332E0,1.6839952E1,1.4954013E1,1.8859386E0,1.2963986E1,1.9900268E0],"tree_param":{"num_deleted":"0","num_feature":"22","num_nodes":"7","size_leaf_vector":"1"}},{"base_weights":[2.1549896E-3,-5.2266188E-2,2.8575814E-1,1.4636363E-1,-1.81001E-1,3.8791325E-2,4.7107507E-3,-4.321021E-3,4.4931486E-2,-5.5714913E-2,1.9413918E-3],"categories":[],"categories_nodes":[],"categories_segments":[],"categories_sizes":[],"default_left":[0,0,0,0,0,0,0,0,0,0,0],"id":79,"left_children":[1,3,5,7,9,-1,-1,-1,-1,-1,-1],"loss_changes":[3.074091E-1,4.5465618E-1,5.987498E-2,4.2933762E-1,8.1042033E-1,0E0,0E0,0E0,0E0,0E0,0E0],"parents":[2147483647,0,0,1,1,2,2,3,3,4,4],"right_children":[2,4,6,8,10,-1,-1,-1,-1,-1,-1],"split_conditions":[8.864559E-1,-7.131544E-1,1E0,4.4776866E-1,-3.5471195E-1,3.8791325E-2,4.7107507E-3,-4.321021E-3,4.4931486E-2,-5.5714913E-2,1.9413918E-3],"split_indices":[8,7,13,0,7,0,0,0,0,0,0],"split_type":[0,0,0,0,0,0,0,0,0,0,0],"sum_hessian":[1.7949934E1,1.5744414E1,2.2055206E0,6.137576E0,9.606838E0,1.1064551E0,1.0990655E0,4.3025775E0,1.8349986E0,2.7206383E0,6.8861995E0],"tree_param":{"num_deleted":"0","num_feature":"22","num_nodes":"11","size_leaf_vector":"1"}},{"base_weights":[3.5182373E-3,-9.033196E-2,1.7325114E-1,1.2061795E-1,-2.3258483E-1,-1.4801039E-2,3.196946E-1,4.2906456E-2,-1.1264249E-2,-5.1840432E-2,-4.4727167E-3,-1.1345613E-2,4.5428853E-2],"categories":[],"categories_nodes":[],"categories_segments":[],"categories_sizes":[],"default_left":[0,0,0,0,0,0,0,0,0,0,0,0,0],"id":80,"left_children":[1,3,5,7,9,-1,11,-1,-1,-1,-1,-1,-1],"loss_changes":[3.165552E-1,4.1279858E-1,3.7986925E-1,4.6723592E-1,4.063068E-1,0E0,3.5305274E-1,0E0,0E0,0E0,0E0,0E0,0E0],"parents":[2147483647,0,0,1,1,2,2,3,3,4,4,6,6],"right_children":[2,4,6,8,10,-1,12,-1,-1,-1,-1,-1,-1],"split_conditions":[1E0,-8.3876234E-1,-5.566952E-1,1.7832483E-1,1E0,-1.4801039E-2,-1.0584501E0,4.2906456E-2,-1.1264249E-2,-5.1840432E-2,-4.4727167E-3,-1.1345613E-2,4.5428853E-2],"split_indices":[21,7,2,5,1,0,5,0,0,0,0,0,0],"split_type":[0,0,0,0,0,0,0,0,0,0,0,0,0],"sum_hessian":[1.7889843E1,1.1821304E1,6.0685396E0,4.822299E0,6.9990053E0,1.8967749E0,4.171765E0,1.7150367E0,3.1072621E0,2.077935E0,4.9210706E0,1.0262216E0,3.145543E0],"tree_param":{"num_deleted":"0","num_feature":"22","num_nodes":"13","size_leaf_vector":"1"}},{"base_weights":[2.855897E-3,5.2493326E-2,-2.9045636E-2,-3.668827E-2,4.591265E-2,-1.0885739E-2,3.7009533E-2],"categories":[],"categories_nodes":[],"categories_segments":[],"categories_sizes":[],"default_left":[0,0,0,0,0,0,0],"id":81,"left_children":[1,3,-1,5,-1,-1,-1],"loss_changes":[2.887691E-1,6.302388E-1,0E0,4.747213E-1,0E0,0E0,0E0],"parents":[2147483647,0,0,1,1,3,3],"right_children":[2,4,-1,6,-1,-1,-1],"split_conditions":[1E0,5.484898E-1,-2.9045636E-2,1.1964744E0,4.591265E-2,-1.0885739E-2,3.7009533E-2],"split_indices":[9,7,0,2,0,0,0],"split_type":[0,0,0,0,0,0,0],"sum_hessian":[1.7786802E1,1.59145975E1,1.8722051E0,1.3798193E1,2.1164038E0,1.2341104E1,1.4570899E0],"tree_param":{"num_deleted":"0","num_feature":"22","num_nodes":"7","size_leaf_vector":"1"}},{"base_weights":[4.917525E-3,-4.7218565E-2,2.7703935E-1,-2.642896E-1,7.045951E-2,3.707085E-2,5.0929673E-3,-5.3413298E-2,1.1604539E-3,6.559243E-2,-1.0064776E-2],"categories":[],"categories_nodes":[],"categories_segments":[],"categories_sizes":[],"default_left":[0,0,0,0,0,0,0,0,0,0,0],"id":82,"left_children":[1,3,5,7,9,-1,-1,-1,-1,-1,-1],"loss_changes":[2.7850106E-1,4.414991E-1,4.791227E-2,4.551274E-1,1.2205056E0,0E0,0E0,0E0,0E0,0E0,0E0],"parents":[2147483647,0,0,1,1,2,2,3,3,4,4],"right_children":[2,4,6,8,10,-1,-1,-1,-1,-1,-1],"split_conditions":[8.864559E-1,-3.951423E-1,1E0,1E0,-2.0552415E-1,3.707085E-2,5.0929673E-3,-5.3413298E-2,1.1604539E-3,6.559243E-2,-1.0064776E-2],"split_indices":[8,3,13,12,3,0,0,0,0,0,0],"split_type":[0,0,0,0,0,0,0,0,0,0,0],"sum_hessian":[1.770817E1,1.555454E1,2.1536298E0,5.030086E0,1.0524453E1,1.0706075E0,1.0830221E0,2.0697358E0,2.9603503E0,1.7394161E0,8.785037E0],"tree_param":{"num_deleted":"0","num_feature":"22","num_nodes":"11","size_leaf_vector":"1"}},{"base_weights":[6.8916045E-3,-3.3503678E-2,4.8697866E-2,1.293201E-1,-2.1507822E-1,2.997205E-2,-1.4501098E-2,1.5054973E-2,-4.7297306E-2],"categories":[],"categories_nodes":[],"categories_segments":[],"categories_sizes":[],"default_left":[0,0,0,0,0,0,0,0,0],"id":83,"left_children":[1,-1,3,5,7,-1,-1,-1,-1],"loss_changes":[2.8190395E-1,0E0,3.9844966E-1,6.9664514E-1,4.9132228E-1,0E0,0E0,0E0,0E0],"parents":[2147483647,0,0,2,2,3,3,4,4],"right_children":[2,-1,4,6,8,-1,-1,-1,-1],"split_conditions":[-1.3055011E0,-3.3503678E-2,1.0525752E0,4.0039128E-1,9.786491E-2,2.997205E-2,-1.4501098E-2,1.5054973E-2,-4.7297306E-2],"split_indices":[2,0,0,2,3,0,0,0,0],"split_type":[0,0,0,0,0,0,0,0,0],"sum_hessian":[1.757944E1,1.151056E0,1.6428383E1,1.2972974E1,3.4554086E0,7.945245E0,5.027729E0,1.6013483E0,1.8540603E0],"tree_param":{"num_deleted":"0","num_feature":"22","num_nodes":"9","size_leaf_vector":"1"}},{"base_weights":[3.4789746E-3,-8.529875E-2,1.6431916E-1,-2.4035834E-1,1.0657413E-1,-1.4613191E-2,3.064982E-1,1.1901997E-2,-3.862821E-2,2.9781053E-2,-3.2537952E-2,-1.00535145E-2,4.3425735E-2],"categories":[],"categories_nodes":[],"categories_segments":[],"categories_sizes":[],"default_left":[0,0,0,0,0,0,0,0,0,0,0,0,0],"id":84,"left_children":[1,3,5,7,9,-1,11,-1,-1,-1,-1,-1,-1],"loss_changes":[2.7872807E-1,4.0059155E-1,3.5089844E-1,4.2762688E-1,6.1945164E-1,0E0,3.0780134E-1,0E0,0E0,0E0,0E0,0E0,0E0],"parents":[2147483647,0,0,1,1,2,2,3,3,4,4,6,6],"right_children":[2,4,6,8,10,-1,12,-1,-1,-1,-1,-1,-1],"split_conditions":[1E0,3.7326673E-1,-5.566952E-1,-6.9248194E-1,1E0,-1.4613191E-2,-1.0584501E0,1.1901997E-2,-3.862821E-2,2.9781053E-2,-3.2537952E-2,-1.00535145E-2,4.3425735E-2],"split_indices":[21,0,2,2,11,0,5,0,0,0,0,0,0],"split_type":[0,0,0,0,0,0,0,0,0,0,0,0,0],"sum_hessian":[1.753851E1,1.1603488E1,5.9350204E0,6.277617E0,5.3258705E0,1.8555608E0,4.0794597E0,1.866126E0,4.4114914E0,3.9067895E0,1.4190811E0,1.0254675E0,3.0539923E0],"tree_param":{"num_deleted":"0","num_feature":"22","num_nodes":"13","size_leaf_vector":"1"}},{"base_weights":[2.5379525E-3,5.1406287E-2,-2.8182594E-2,-1.0982394E-1,2.5419202E-1,7.0463284E-3,-4.17011E-2,4.0299002E-2,-2.57939E-2],"categories":[],"categories_nodes":[],"categories_segments":[],"categories_sizes":[],"default_left":[0,0,0,0,0,0,0,0,0],"id":85,"left_children":[1,3,-1,5,7,-1,-1,-1,-1],"loss_changes":[2.7054253E-1,5.696617E-1,0E0,5.792633E-1,6.861999E-1,0E0,0E0,0E0,0E0],"parents":[2147483647,0,0,1,1,3,3,4,4],"right_children":[2,4,-1,6,8,-1,-1,-1,-1],"split_conditions":[1E0,-3.5471195E-1,-2.8182594E-2,-7.131544E-1,1E0,7.0463284E-3,-4.17011E-2,4.0299002E-2,-2.57939E-2],"split_indices":[9,7,0,7,16,0,0,0,0],"split_type":[0,0,0,0,0,0,0,0,0],"sum_hessian":[1.7426E1,1.55695715E1,1.8564295E0,8.928864E0,6.640708E0,6.1122303E0,2.8166332E0,5.3107877E0,1.3299204E0],"tree_param":{"num_deleted":"0","num_feature":"22","num_nodes":"9","size_leaf_vector":"1"}},{"base_weights":[-3.235823E-4,-9.3952134E-2,1.5242794E-1,-3.399695E-1,6.7212954E-2,4.799225E-2,-1.0178989E-1,-6.84085E-2,3.1398688E-3,6.078381E-2,-9.587581E-3,1.7300373E-2,-3.763179E-2],"categories":[],"categories_nodes":[],"categories_segments":[],"categories_sizes":[],"default_left":[0,0,0,0,0,0,0,0,0,0,0,0,0],"id":86,"left_children":[1,3,5,7,9,-1,11,-1,-1,-1,-1,-1,-1],"loss_changes":[2.765354E-1,4.9807185E-1,6.606624E-1,6.4882165E-1,7.7038616E-1,0E0,4.3944433E-1,0E0,0E0,0E0,0E0,0E0,0E0],"parents":[2147483647,0,0,1,1,2,2,3,3,4,4,6,6],"right_children":[2,4,6,8,10,-1,12,-1,-1,-1,-1,-1,-1],"split_conditions":[-3.5903928E-1,-3.951423E-1,-2.0552415E-1,-3.9569184E-1,-7.492564E-1,4.799225E-2,1E0,-6.84085E-2,3.1398688E-3,6.078381E-2,-9.587581E-3,1.7300373E-2,-3.763179E-2],"split_indices":[8,3,3,2,5,0,13,0,0,0,0,0,0],"split_type":[0,0,0,0,0,0,0,0,0,0,0,0,0],"sum_hessian":[1.7334232E1,1.0985587E1,6.3486457E0,3.909031E0,7.0765567E0,2.3864615E0,3.9621842E0,1.5918924E0,2.3171384E0,1.0080197E0,6.068537E0,2.1649518E0,1.7972324E0],"tree_param":{"num_deleted":"0","num_feature":"22","num_nodes":"13","size_leaf_vector":"1"}},{"base_weights":[4.4672433E-4,-8.586368E-2,1.5711561E-1,1.20563805E-1,-2.2729585E-1,3.145638E-1,-1.058993E-1,3.6971025E-2,-1.3490197E-2,-4.932887E-2,-5.0738286E-3,-1.4510348E-2,4.908841E-2,1.7938852E-2,-3.154361E-2],"categories":[],"categories_nodes":[],"categories_segments":[],"categories_sizes":[],"default_left":[0,0,0,0,0,0,0,0,0,0,0,0,0,0,0],"id":87,"left_children":[1,3,5,7,9,11,13,-1,-1,-1,-1,-1,-1,-1,-1],"loss_changes":[2.5977784E-1,3.8914877E-1,3.1586772E-1,4.1210395E-1,3.3655635E-1,4.375691E-1,2.5404313E-1,0E0,0E0,0E0,0E0,0E0,0E0,0E0,0E0],"parents":[2147483647,0,0,1,1,2,2,3,3,4,4,5,5,6,6],"right_children":[2,4,6,8,10,12,14,-1,-1,-1,-1,-1,-1,-1,-1],"split_conditions":[1E0,-8.3876234E-1,2.3059762E-1,3.991775E-1,1E0,-7.174932E-1,4.956815E-1,3.6971025E-2,-1.3490197E-2,-4.932887E-2,-5.0738286E-3,-1.4510348E-2,